{"learner":{"attributes":{"scikit_learn":"{\"_estimator_type\": \"classifier\"}"},"feature_names":["age","fitness_level","workout_type","athlete_type","body_fat_pct","limb_length","duration_mins","avg_hr","max_hr","hr_spikes","pct_time_low","avg_emg","emg_fatigue","total_reps"],"feature_types":["int","c","c","c","float","c","float","float","float","int","float","float","float","int"],"gradient_booster":{"model":{"cats":{"enc":[{"offsets":[],"values":[]},{"offsets":[0,4,7,13],"values":[104,105,103,104,108,111,119,109,101,100,105,117,109]},{"offsets":[0,4,8,25,36],"values":[72,73,76,86,76,73,72,86,101,110,100,117,114,97,110,99,101,95,108,105,102,116,105,110,103,104,121,112,101,114,116,114,111,112,104,121]},{"offsets":[0,7,13,25,36],"values":[103,121,109,95,98,114,111,104,121,98,114,105,100,110,111,110,95,97,116,104,108,101,116,105,99,112,111,119,101,114,108,105,102,116,101,114]},{"offsets":[],"values":[]},{"offsets":[0,4,10,15],"values":[108,111,110,103,109,101,100,105,117,109,115,104,111,114,116]},{"offsets":[],"values":[]},{"offsets":[],"values":[]},{"offsets":[],"values":[]},{"offsets":[],"values":[]},{"offsets":[],"values":[]},{"offsets":[],"values":[]},{"offsets":[],"values":[]},{"offsets":[],"values":[]}],"feature_segments":[0,0,3,7,11,11,14,14,14,14,14,14,14,14,14],"sorted_idx":[0,1,2,0,1,2,3,0,1,2,3,0,1,2]},"gbtree_model_param":{"num_parallel_tree":"1","num_trees":"628"},"iteration_indptr":[0,4,8,12,16,20,24,28,32,36,40,44,48,52,56,60,64,68,72,76,80,84,88,92,96,100,104,108,112,116,120,124,128,132,136,140,144,148,152,156,160,164,168,172,176,180,184,188,192,196,200,204,208,212,216,220,224,228,232,236,240,244,248,252,256,260,264,268,272,276,280,284,288,292,296,300,304,308,312,316,320,324,328,332,336,340,344,348,352,356,360,364,368,372,376,380,384,388,392,396,400,404,408,412,416,420,424,428,432,436,440,444,448,452,456,460,464,468,472,476,480,484,488,492,496,500,504,508,512,516,520,524,528,532,536,540,544,548,552,556,560,564,568,572,576,580,584,588,592,596,600,604,608,612,616,620,624,628],"tree_info":[0,1,2,3,0,1,2,3,0,1,2,3,0,1,2,3,0,1,2,3,0,1,2,3,0,1,2,3,0,1,2,3,0,1,2,3,0,1,2,3,0,1,2,3,0,1,2,3,0,1,2,3,0,1,2,3,0,1,2,3,0,1,2,3,0,1,2,3,0,1,2,3,0,1,2,3,0,1,2,3,0,1,2,3,0,1,2,3,0,1,2,3,0,1,2,3,0,1,2,3,0,1,2,3,0,1,2,3,0,1,2,3,0,1,2,3,0,1,2,3,0,1,2,3,0,1,2,3,0,1,2,3,0,1,2,3,0,1,2,3,0,1,2,3,0,1,2,3,0,1,2,3,0,1,2,3,0,1,2,3,0,1,2,3,0,1,2,3,0,1,2,3,0,1,2,3,0,1,2,3,0,1,2,3,0,1,2,3,0,1,2,3,0,1,2,3,0,1,2,3,0,1,2,3,0,1,2,3,0,1,2,3,0,1,2,3,0,1,2,3,0,1,2,3,0,1,2,3,0,1,2,3,0,1,2,3,0,1,2,3,0,1,2,3,0,1,2,3,0,1,2,3,0,1,2,3,0,1,2,3,0,1,2,3,0,1,2,3,0,1,2,3,0,1,2,3,0,1,2,3,0,1,2,3,0,1,2,3,0,1,2,3,0,1,2,3,0,1,2,3,0,1,2,3,0,1,2,3,0,1,2,3,0,1,2,3,0,1,2,3,0,1,2,3,0,1,2,3,0,1,2,3,0,1,2,3,0,1,2,3,0,1,2,3,0,1,2,3,0,1,2,3,0,1,2,3,0,1,2,3,0,1,2,3,0,1,2,3,0,1,2,3,0,1,2,3,0,1,2,3,0,1,2,3,0,1,2,3,0,1,2,3,0,1,2,3,0,1,2,3,0,1,2,3,0,1,2,3,0,1,2,3,0,1,2,3,0,1,2,3,0,1,2,3,0,1,2,3,0,1,2,3,0,1,2,3,0,1,2,3,0,1,2,3,0,1,2,3,0,1,2,3,0,1,2,3,0,1,2,3,0,1,2,3,0,1,2,3,0,1,2,3,0,1,2,3,0,1,2,3,0,1,2,3,0,1,2,3,0,1,2,3,0,1,2,3,0,1,2,3,0,1,2,3,0,1,2,3,0,1,2,3,0,1,2,3,0,1,2,3,0,1,2,3,0,1,2,3,0,1,2,3,0,1,2,3,0,1,2,3,0,1,2,3,0,1,2,3,0,1,2,3,0,1,2,3,0,1,2,3,0,1,2,3,0,1,2,3,0,1,2,3,0,1,2,3,0,1,2,3,0,1,2,3,0,1,2,3,0,1,2,3,0,1,2,3,0,1,2,3,0,1,2,3,0,1,2,3,0,1,2,3,0,1,2,3,0,1,2,3,0,1,2,3,0,1,2,3],"trees":[{"base_weights":[-5.8594655E-4,1.6203358E0,-4.2460427E-1,3.070837E-1,1.8177598E0,4.6988454E-2,-4.605199E-1,1.4843E0,-2.5065392E-1,1.3615415E0,1.9862193E0,-2.2681257E-1,2.7069703E-1,-2.0414196E-1,-4.7737432E-1,1.7060907E0,3.356986E-1,2.3540251E-1,-3.4066814E-1,1.762553E0,5.058638E-1,1.7471855E0,2.7510098E-1,-3.6703935E-1,1.508501E0,1.5594211E0,-3.5516164E-1,-5.4739606E-1,-4.1952044E-1,1.842538E0,1.136967E0,2.12907E-1,-2.9583806E-1,-4.075347E-1,1.8342817E-1,1.9209213E0,1.4011683E0,2.554489E-1,2.5751358E-1,2.657867E-1,1.1559236E0,-4.4803783E-1,3.281951E-1,2.4598882E-1,-5.0512668E-2,1.7306148E0,9.40684E-2,1.4875609E0,-4.4670302E-1,-5.714185E-1,-3.188655E-1,-1.0549474E-1,-5.0515056E-1,1.7872804E-1,2.6271263E-1,2.1651103E-1,8.427061E-2,6.2233E-3,-8.0913424E-2,2.2223694E-2,-7.0928834E-2,2.6625094E-1,1.8342817E-1,2.4802886E-1,1.3634725E-1,7.869665E-2,-2.1266863E-2,2.2810805E-1,1.0709462E-1,-7.037859E-2,2.5785021E-2,2.1331856E-1,1.2224208E-2,2.5509602E-1,1.5368447E-1,2.4805067E-1,1.2955599E-1,-3.4644E-2,-8.9118846E-2,-7.9339534E-2,9.320565E-2,2.12907E-1,-4.8410974E-2,-8.9465396E-4,-8.766276E-2,-6.551819E-2,-9.165304E-2],"categories":[],"categories_nodes":[],"categories_segments":[],"categories_sizes":[],"default_left":[0,0,0,0,0,0,0,0,0,0,0,0,0,0,0,0,0,0,0,0,0,0,0,0,0,0,0,0,0,0,0,0,0,0,0,0,0,0,0,0,0,0,0,0,0,0,0,0,0,0,0,0,0,0,0,0,0,0,0,0,0,0,0,0,0,0,0,0,0,0,0,0,0,0,0,0,0,0,0,0,0,0,0,0,0,0,0],"id":0,"left_children":[1,3,5,7,9,11,13,15,17,19,21,23,-1,25,27,29,31,-1,33,35,37,39,-1,41,43,45,47,49,51,53,55,-1,57,59,-1,61,63,-1,65,-1,67,69,71,-1,-1,73,-1,75,77,79,81,83,85,-1,-1,-1,-1,-1,-1,-1,-1,-1,-1,-1,-1,-1,-1,-1,-1,-1,-1,-1,-1,-1,-1,-1,-1,-1,-1,-1,-1,-1,-1,-1,-1,-1,-1],"loss_changes":[6.1124272E3,4.7771484E2,1.19427734E2,1.5891916E2,1.2160498E2,2.6266254E2,2.8226929E1,1.9428192E1,2.9272827E1,1.483656E2,1.2939453E0,1.06692085E2,0E0,1.0815892E2,2.4736206E1,3.806549E0,1.0455009E1,0E0,1.7892523E1,1.5321472E1,4.6342087E1,5.156601E0,0E0,2.289973E1,1.7511703E1,4.0747757E0,6.3348167E1,1.512085E1,9.051416E1,3.8154602E-1,2.6060448E0,0E0,9.4757843E-1,9.368872E0,0E0,3.2592773E-2,1.4067825E1,0E0,1.536916E1,0E0,2.1534748E0,1.4630074E1,1.2298065E1,0E0,0E0,7.5354004E-1,0E0,2.0338058E0,1.3823097E1,1.537677E1,1.6474005E1,3.7962944E1,1.2224609E1,0E0,0E0,0E0,0E0,0E0,0E0,0E0,0E0,0E0,0E0,0E0,0E0,0E0,0E0,0E0,0E0,0E0,0E0,0E0,0E0,0E0,0E0,0E0,0E0,0E0,0E0,0E0,0E0,0E0,0E0,0E0,0E0,0E0,0E0],"parents":[2147483647,0,0,1,1,2,2,3,3,4,4,5,5,6,6,7,7,8,8,9,9,10,10,11,11,13,13,14,14,15,15,16,16,18,18,19,19,20,20,21,21,23,23,24,24,25,25,26,26,27,27,28,28,29,29,30,30,32,32,33,33,35,35,36,36,38,38,40,40,41,41,42,42,45,45,47,47,48,48,49,49,50,50,51,51,52,52],"right_children":[2,4,6,8,10,12,14,16,18,20,22,24,-1,26,28,30,32,-1,34,36,38,40,-1,42,44,46,48,50,52,54,56,-1,58,60,-1,62,64,-1,66,-1,68,70,72,-1,-1,74,-1,76,78,80,82,84,86,-1,-1,-1,-1,-1,-1,-1,-1,-1,-1,-1,-1,-1,-1,-1,-1,-1,-1,-1,-1,-1,-1,-1,-1,-1,-1,-1,-1,-1,-1,-1,-1,-1,-1],"split_conditions":[5E0,4.5E1,7.1E0,8.15E1,5.9E1,6.19E1,2.2E0,3.4E0,1.5E0,1.343E2,6.19E1,4.634E2,2.7069703E-1,5E0,3.75E2,7E1,6.54E1,2.3540251E-1,4.038E2,2.9E0,1.7E0,3.6E0,2.7510098E-1,5.46E1,3.75E1,2E0,1.75E1,2.55E1,1.55E1,6.2E0,2.1E0,2.12907E-1,3E1,1.003E2,1.8342817E-1,1.288E2,8.85E1,2.554489E-1,2.106E2,2.657867E-1,1.081E2,3.554E2,1.081E2,2.4598882E-1,-5.0512668E-2,5.629E2,9.40684E-2,1.4E1,1E1,6.11E1,1.866E2,3.83E1,3.99E1,1.7872804E-1,2.6271263E-1,2.1651103E-1,8.427061E-2,6.2233E-3,-8.0913424E-2,2.2223694E-2,-7.0928834E-2,2.6625094E-1,1.8342817E-1,2.4802886E-1,1.3634725E-1,7.869665E-2,-2.1266863E-2,2.2810805E-1,1.0709462E-1,-7.037859E-2,2.5785021E-2,2.1331856E-1,1.2224208E-2,2.5509602E-1,1.5368447E-1,2.4805067E-1,1.2955599E-1,-3.4644E-2,-8.9118846E-2,-7.9339534E-2,9.320565E-2,2.12907E-1,-4.8410974E-2,-8.9465396E-4,-8.766276E-2,-6.551819E-2,-9.165304E-2],"split_indices":[12,10,12,11,10,10,10,12,12,11,10,11,0,9,11,11,11,0,11,12,12,12,0,10,10,10,12,12,12,10,12,0,0,11,0,11,11,0,11,0,11,11,11,0,0,11,0,12,9,10,11,10,10,0,0,0,0,0,0,0,0,0,0,0,0,0,0,0,0,0,0,0,0,0,0,0,0,0,0,0,0,0,0,0,0,0,0],"split_type":[0,0,0,0,0,0,0,0,0,0,0,0,0,0,0,0,0,0,0,0,0,0,0,0,0,0,0,0,0,0,0,0,0,0,0,0,0,0,0,0,0,0,0,0,0,0,0,0,0,0,0,0,0,0,0,0,0,0,0,0,0,0,0,0,0,0,0,0,0,0,0,0,0,0,0,0,0,0,0,0,0,0,0,0,0,0,0],"sum_hessian":[8.892375E3,1.8435E3,7.048875E3,2.41125E2,1.602375E3,4.9875E2,6.550125E3,7.725E1,1.63875E2,4.335E2,1.168875E3,4.36875E2,6.1875E1,4.04625E2,6.1455E3,6.45E1,1.275E1,6.75E0,1.57125E2,2.9475E2,1.3875E2,5.925E1,1.109625E3,4.04625E2,3.225E1,3.15E1,3.73125E2,2.778E3,3.3675E3,5.1E1,1.35E1,4.125E0,8.625E0,1.515E2,5.625E0,2.0325E2,9.15E1,2.1E1,1.1775E2,4.425E1,1.5E1,3.62625E2,4.2E1,2.8125E1,4.125E0,2.5875E1,5.625E0,1.725E1,3.55875E2,2.512875E3,2.65125E2,7.21875E2,2.645625E3,6.75E0,4.425E1,6.75E0,6.75E0,4.125E0,4.5E0,2.4E1,1.275E2,1.97625E2,5.625E0,4.5375E1,4.6125E1,6.675E1,5.1E1,5.625E0,9.375E0,3.3E2,3.2625E1,6.375E0,3.5625E1,2.0625E1,5.25E0,1.0125E1,7.125E0,1.81125E2,1.7475E2,2.5035E3,9.375E0,4.125E0,2.61E2,6.09E2,1.12875E2,2.2395E3,4.06125E2],"tree_param":{"num_deleted":"0","num_feature":"14","num_nodes":"87","size_leaf_vector":"1"}},{"base_weights":[7.253762E-4,4.756144E-1,-5.3662944E-1,-4.672579E-1,9.1200686E-1,-1.8266237E-1,-6.0764706E-1,-5.7832575E-1,-1.3034517E-1,1.1059756E0,-5.324818E-1,2.2080109E-1,-5.778247E-1,-4.8702398E-1,-6.526874E-1,-6.5058196E-1,-4.2041504E-1,-2.8513187E-1,1.1199557E0,-3.862053E-1,1.2725867E0,1.1127425E0,-6.135818E-1,7.517912E-1,-2.9928327E-1,-7.176767E-2,-6.3101065E-1,-2.9329157E-1,-6.3265395E-1,-6.127096E-1,-9.175857E-2,-6.0515016E-1,-9.169161E-2,-5.477854E-1,-1.2676024E-1,-4.4578114E-1,6.955973E-2,6.7076445E-1,2.4135995E-1,-5.944313E-1,2.1557532E-1,1.4318916E0,2.7994406E-1,2.6311627E-1,-8.289842E-2,-2.452451E-1,-6.533159E-1,-1.2001767E-1,1.3236231E0,1.404179E-1,-4.9796763E-1,5.8084214E-1,-8.883248E-2,-4.9341458E-1,-9.157242E-2,-5.03458E-1,2.2369781E-1,-5.258362E-1,-9.132722E-2,-9.167384E-2,-4.6515635E-1,-8.977513E-2,-5.41517E-2,-6.8844266E-2,-8.930153E-2,-1.1227265E-3,-8.2851626E-2,-3.219259E-2,-7.468554E-2,4.8907395E-2,-1.6359989E-2,6.039462E-2,1.8342817E-1,-8.961091E-2,-6.205364E-2,1.4464118E-1,-9.028836E-2,1.0985815E-1,2.2676128E-1,1.4181131E-1,-4.195792E-2,1.9022739E-1,-6.859054E-2,-4.12911E-2,-9.0766944E-2,1.0595494E-1,-8.737976E-2,2.2698748E-1,1.02906406E-1,-8.940973E-2,9.646913E-2,-1.8676678E-2,-9.1128E-2,1.9042839E-1,-8.386284E-2,2.5496874E-2,-9.075482E-2,-4.5661572E-2,-8.803645E-2,7.898175E-2,-9.01723E-2,1.0426306E-1,-9.129823E-2,-3.750834E-2,-9.115377E-2],"categories":[0,1,3,0,1,2,1,2,3,1,2,1,2,3,1,2,3,3,3,0,2,3],"categories_nodes":[15,29,33,35,36,40,47,51,53,57],"categories_segments":[0,3,4,6,9,11,14,17,18,19],"categories_sizes":[3,1,2,3,2,3,3,1,1,3],"default_left":[0,0,0,0,0,0,0,0,0,0,0,0,0,0,0,1,0,0,0,0,0,0,0,0,0,0,0,0,0,1,0,0,0,1,0,1,1,0,0,0,1,0,0,0,0,0,0,1,0,0,0,1,0,1,0,0,0,1,0,0,0,0,0,0,0,0,0,0,0,0,0,0,0,0,0,0,0,0,0,0,0,0,0,0,0,0,0,0,0,0,0,0,0,0,0,0,0,0,0,0,0,0,0,0,0],"id":1,"left_children":[1,3,5,7,9,11,13,15,17,19,21,23,25,27,29,31,33,35,37,39,41,43,45,47,49,51,53,55,57,59,-1,61,-1,63,65,67,69,71,-1,73,75,77,79,-1,-1,81,83,85,87,89,91,93,-1,95,-1,97,99,101,-1,-1,103,-1,-1,-1,-1,-1,-1,-1,-1,-1,-1,-1,-1,-1,-1,-1,-1,-1,-1,-1,-1,-1,-1,-1,-1,-1,-1,-1,-1,-1,-1,-1,-1,-1,-1,-1,-1,-1,-1,-1,-1,-1,-1,-1,-1],"loss_changes":[2.2730042E3,1.9458619E3,1.0495508E2,5.5927673E1,9.0608545E2,1.115527E2,1.869165E1,1.2648987E1,7.209118E1,7.088894E2,5.1455627E1,9.576958E1,9.46022E0,2.6625198E1,1.1237793E0,2.7209473E-1,1.3210972E1,1.8908546E1,1.0942295E1,3.6004513E1,4.051753E2,2.553507E1,5.2265625E0,8.564923E1,1.5365115E1,1.3035724E1,1.277504E0,4.4420044E1,1.5376282E0,4.9319763E0,0E0,1.8232727E0,0E0,9.7122955E-1,6.0671186E0,4.5764427E0,5.6105185E0,3.441268E0,0E0,1.5276642E0,5.4252865E1,3.0048193E2,1.5600778E2,0E0,0E0,1.5371113E1,5.471039E-1,3.1577547E1,1.865651E1,2.4545427E1,7.1009808E0,1.6033054E1,0E0,7.4839783E0,0E0,6.631859E0,3.657053E1,2.202636E1,0E0,0E0,6.532589E0,0E0,0E0,0E0,0E0,0E0,0E0,0E0,0E0,0E0,0E0,0E0,0E0,0E0,0E0,0E0,0E0,0E0,0E0,0E0,0E0,0E0,0E0,0E0,0E0,0E0,0E0,0E0,0E0,0E0,0E0,0E0,0E0,0E0,0E0,0E0,0E0,0E0,0E0,0E0,0E0,0E0,0E0,0E0,0E0],"parents":[2147483647,0,0,1,1,2,2,3,3,4,4,5,5,6,6,7,7,8,8,9,9,10,10,11,11,12,12,13,13,14,14,15,15,16,16,17,17,18,18,19,19,20,20,21,21,22,22,23,23,24,24,25,25,26,26,27,27,28,28,29,29,31,31,33,33,34,34,35,35,36,36,37,37,39,39,40,40,41,41,42,42,45,45,46,46,47,47,48,48,49,49,50,50,51,51,53,53,55,55,56,56,57,57,60,60],"right_children":[2,4,6,8,10,12,14,16,18,20,22,24,26,28,30,32,34,36,38,40,42,44,46,48,50,52,54,56,58,60,-1,62,-1,64,66,68,70,72,-1,74,76,78,80,-1,-1,82,84,86,88,90,92,94,-1,96,-1,98,100,102,-1,-1,104,-1,-1,-1,-1,-1,-1,-1,-1,-1,-1,-1,-1,-1,-1,-1,-1,-1,-1,-1,-1,-1,-1,-1,-1,-1,-1,-1,-1,-1,-1,-1,-1,-1,-1,-1,-1,-1,-1,-1,-1,-1,-1,-1,-1],"split_conditions":[1.56E1,3.6E0,1.82E1,2.5E0,1.89E2,1.03E2,2.2E1,1.7E0,9.1E1,1.1E1,7.7E0,5E0,3E0,8.9E1,2.52E1,1E-45,5.5E1,4.7E1,1.17E2,9E0,5E0,2.29E2,9.5E0,3.7E1,2E1,1.34E2,1.27E2,4E1,1.17E2,1E-45,-9.175857E-2,1.4E0,-9.169161E-2,1E-45,1.44E2,1E-45,1E-45,2.98E1,2.4135995E-1,7E0,1E-45,4.6E1,2.8E1,2.6311627E-1,-8.289842E-2,2.04E2,2E0,1E-45,7.9E1,1E1,6E0,1E-45,-8.883248E-2,1E-45,-9.157242E-2,1.9E1,6E0,1E-45,-9.132722E-2,-9.167384E-2,9.9E1,-8.977513E-2,-5.41517E-2,-6.8844266E-2,-8.930153E-2,-1.1227265E-3,-8.2851626E-2,-3.219259E-2,-7.468554E-2,4.8907395E-2,-1.6359989E-2,6.039462E-2,1.8342817E-1,-8.961091E-2,-6.205364E-2,1.4464118E-1,-9.028836E-2,1.0985815E-1,2.2676128E-1,1.4181131E-1,-4.195792E-2,1.9022739E-1,-6.859054E-2,-4.12911E-2,-9.0766944E-2,1.0595494E-1,-8.737976E-2,2.2698748E-1,1.02906406E-1,-8.940973E-2,9.646913E-2,-1.8676678E-2,-9.1128E-2,1.9042839E-1,-8.386284E-2,2.5496874E-2,-9.075482E-2,-4.5661572E-2,-8.803645E-2,7.898175E-2,-9.01723E-2,1.0426306E-1,-9.129823E-2,-3.750834E-2,-9.115377E-2],"split_indices":[12,12,12,12,13,13,12,12,13,13,12,9,9,13,12,2,13,13,13,13,9,13,12,13,13,13,13,13,13,5,0,12,0,2,13,2,2,4,0,13,2,13,13,0,0,13,9,2,13,13,9,2,0,2,0,13,9,2,0,0,13,0,0,0,0,0,0,0,0,0,0,0,0,0,0,0,0,0,0,0,0,0,0,0,0,0,0,0,0,0,0,0,0,0,0,0,0,0,0,0,0,0,0,0,0],"split_type":[0,0,0,0,0,0,0,0,0,0,0,0,0,0,0,1,0,0,0,0,0,0,0,0,0,0,0,0,0,1,0,0,0,1,0,1,1,0,0,0,1,0,0,0,0,0,0,1,0,0,0,1,0,1,0,0,0,1,0,0,0,0,0,0,0,0,0,0,0,0,0,0,0,0,0,0,0,0,0,0,0,0,0,0,0,0,0,0,0,0,0,0,0,0,0,0,0,0,0,0,0,0,0,0,0],"sum_hessian":[8.90625E3,4.728E3,4.17825E3,1.495875E3,3.232125E3,6.98625E2,3.479625E3,1.124625E3,3.7125E2,2.849625E3,3.825E2,3.4575E2,3.52875E2,9.48E2,2.531625E3,7.7025E2,3.54375E2,3.3075E2,4.05E1,2.86125E2,2.5635E3,1.7625E1,3.64875E2,1.71E2,1.7475E2,3.375E1,3.19125E2,4.07625E2,5.40375E2,6.555E2,1.876125E3,2.01E2,5.6925E2,2.4675E2,1.07625E2,2.27625E2,1.03125E2,2.4375E1,1.6125E1,2.12625E2,7.35E1,2.20875E3,3.5475E2,1.2E1,5.625E0,3.6E1,3.28875E2,6.7875E1,1.03125E2,5.4375E1,1.20375E2,1.575E1,1.8E1,6.525E1,2.53875E2,2.89875E2,1.1775E2,1.23E2,4.17375E2,4.80375E2,1.75125E2,1.635E2,3.75E1,1.69875E2,7.6875E1,8.6625E1,2.1E1,7.2E1,1.55625E2,4.0875E1,6.225E1,1.875E1,5.625E0,1.51125E2,6.15E1,3.75E1,3.6E1,5.6025E2,1.6485E3,1.5525E2,1.995E2,4.5E0,3.15E1,6E0,3.22875E2,2.475E1,4.3125E1,6.525E1,3.7875E1,2.25E1,3.1875E1,3.7875E1,8.25E1,9.375E0,6.375E0,1.275E1,5.25E1,1.29E2,1.60875E2,8.4375E1,3.3375E1,1.1625E1,1.11375E2,8.925E1,8.5875E1],"tree_param":{"num_deleted":"0","num_feature":"14","num_nodes":"105","size_leaf_vector":"1"}},{"base_weights":[-2.2038478E-4,-5.177423E-1,3.0089325E-1,-6.3116425E-1,-2.0302814E-1,-6.106503E-1,5.038862E-1,-6.6226906E-1,-5.1071304E-1,-5.1989394E-1,1.0917672E0,-6.4733934E-1,-1.2909028E-1,7.2799546E-1,-4.7492954E-1,-9.154045E-2,-3.7548614E-1,-6.280186E-1,1.7867555E-1,-6.472418E-1,-9.9505685E-2,-4.5223194E-1,1.545143E0,-6.595234E-1,-4.4834754E-1,-4.4535267E-1,1.314023E0,-9.1666065E-2,9.183549E-1,1.1618057E0,-6.2667125E-1,-8.798667E-2,6.527579E-2,-4.91656E-1,-6.4915794E-1,-5.475241E-1,9.183626E-1,-6.546131E-1,2.6256444E-2,-5.5476004E-1,8.584917E-1,-5.9595895E-1,5.8535174E-2,1.9055006E-1,1.7173573E0,-9.139638E-2,-5.831562E-1,-6.140093E-1,2.0875181E-1,-5.157961E-1,4.35139E-2,6.2233E-3,2.5860533E-1,1.0346824E0,-6.0926664E-1,1.5220188E0,-8.741824E-2,2.1098232E-2,-9.1713734E-2,-9.060419E-2,1.2200888E-2,-9.1626234E-2,-5.89046E-2,-9.011687E-2,3.5749543E-2,-5.387882E-3,2.5222614E-1,-9.166961E-2,-7.87692E-2,-8.482009E-2,1.2432828E-1,-4.530597E-2,2.3085143E-1,-8.974262E-2,-4.870446E-2,-6.0825773E-2,1.9612537E-1,2.4671596E-1,1.2920997E-1,-8.782249E-2,6.2233E-3,-9.022418E-2,-6.1877664E-2,1.2552549E-1,-8.232249E-2,-8.722294E-2,-1.9230789E-2,-3.212365E-2,1.5148324E-1,-5.8195613E-2,-9.148177E-2,-8.166677E-2,2.3576914E-1,1.14370115E-1,-7.456472E-2],"categories":[1,2,3,1,2,3],"categories_nodes":[17,48],"categories_segments":[0,3],"categories_sizes":[3,3],"default_left":[0,0,0,0,0,0,0,0,0,0,0,0,0,0,0,0,0,1,0,0,0,0,0,0,0,0,0,0,0,0,0,0,0,0,0,0,0,0,0,0,0,0,0,0,0,0,0,0,1,0,0,0,0,0,0,0,0,0,0,0,0,0,0,0,0,0,0,0,0,0,0,0,0,0,0,0,0,0,0,0,0,0,0,0,0,0,0,0,0,0,0,0,0,0,0],"id":2,"left_children":[1,3,5,7,9,11,13,15,17,19,21,23,25,27,29,-1,31,33,35,37,39,41,43,45,47,49,51,-1,53,55,57,-1,-1,59,61,63,65,67,-1,69,71,73,-1,75,77,-1,79,81,83,85,-1,-1,-1,87,89,91,-1,93,-1,-1,-1,-1,-1,-1,-1,-1,-1,-1,-1,-1,-1,-1,-1,-1,-1,-1,-1,-1,-1,-1,-1,-1,-1,-1,-1,-1,-1,-1,-1,-1,-1,-1,-1,-1,-1],"loss_changes":[1.3865435E3,1.1672223E2,1.040955E3,8.78418E0,3.5636716E2,1.802832E1,1.009405E3,1.2494507E0,4.021237E1,3.7285812E1,1.1997244E2,2.1054077E0,3.3729614E1,9.936361E2,2.1331873E2,0E0,4.320694E0,1.0065918E0,3.924964E1,3.391693E0,7.129599E1,5.081608E0,3.0580109E1,3.6956787E-2,6.266591E0,3.342537E0,9.392399E0,0E0,5.8574316E2,4.7744614E1,2.0098022E1,0E0,0E0,5.790971E0,1.125061E0,3.2952318E0,3.1742779E1,2.3677063E-1,0E0,1.01881485E1,5.152093E1,2.9528522E-1,0E0,1.2500852E1,5.7934265E0,0E0,1.849184E0,1.0774803E-1,6.9900556E0,2.3865547E0,0E0,0E0,0E0,2.5465845E2,2.2092896E0,2.512233E1,0E0,2.0997396E1,0E0,0E0,0E0,0E0,0E0,0E0,0E0,0E0,0E0,0E0,0E0,0E0,0E0,0E0,0E0,0E0,0E0,0E0,0E0,0E0,0E0,0E0,0E0,0E0,0E0,0E0,0E0,0E0,0E0,0E0,0E0,0E0,0E0,0E0,0E0,0E0,0E0],"parents":[2147483647,0,0,1,1,2,2,3,3,4,4,5,5,6,6,7,7,8,8,9,9,10,10,11,11,12,12,13,13,14,14,16,16,17,17,18,18,19,19,20,20,21,21,22,22,23,23,24,24,25,25,26,26,28,28,29,29,30,30,33,33,34,34,35,35,36,36,37,37,39,39,40,40,41,41,43,43,44,44,46,46,47,47,48,48,49,49,53,53,54,54,55,55,57,57],"right_children":[2,4,6,8,10,12,14,16,18,20,22,24,26,28,30,-1,32,34,36,38,40,42,44,46,48,50,52,-1,54,56,58,-1,-1,60,62,64,66,68,-1,70,72,74,-1,76,78,-1,80,82,84,86,-1,-1,-1,88,90,92,-1,94,-1,-1,-1,-1,-1,-1,-1,-1,-1,-1,-1,-1,-1,-1,-1,-1,-1,-1,-1,-1,-1,-1,-1,-1,-1,-1,-1,-1,-1,-1,-1,-1,-1,-1,-1,-1,-1],"split_conditions":[3E0,9.9E1,1.9E1,3.148E2,2.543E2,1.8E1,9E0,1.677E2,7.5E1,1.845E2,3.41E1,1.7E1,7E0,2.8E1,3.5E1,-9.154045E-2,3.19E1,1E-45,3.59E1,1.864E2,4.16E1,3.652E2,1.083E2,1.6E1,4.61E1,1.74E2,3.54E1,-9.1666065E-2,3.17E2,1.1E1,4.1E1,-8.798667E-2,6.527579E-2,1.9E1,6.9E1,1.339E2,1.196E2,1.636E2,2.6256444E-2,2.1E2,1.419E2,3.03E1,5.8535174E-2,3.554E2,2.58E2,-9.139638E-2,5.49E1,1.474E2,1E-45,4.77E1,4.35139E-2,6.2233E-3,2.5860533E-1,1.754E2,3.5E2,1.15E1,-8.741824E-2,1E1,-9.1713734E-2,-9.060419E-2,1.2200888E-2,-9.1626234E-2,-5.89046E-2,-9.011687E-2,3.5749543E-2,-5.387882E-3,2.5222614E-1,-9.166961E-2,-7.87692E-2,-8.482009E-2,1.2432828E-1,-4.530597E-2,2.3085143E-1,-8.974262E-2,-4.870446E-2,-6.0825773E-2,1.9612537E-1,2.4671596E-1,1.2920997E-1,-8.782249E-2,6.2233E-3,-9.022418E-2,-6.1877664E-2,1.2552549E-1,-8.232249E-2,-8.722294E-2,-1.9230789E-2,-3.212365E-2,1.5148324E-1,-5.8195613E-2,-9.148177E-2,-8.166677E-2,2.3576914E-1,1.14370115E-1,-7.456472E-2],"split_indices":[9,13,13,11,11,13,9,7,13,11,6,13,9,6,13,0,6,2,6,7,6,11,7,13,6,8,6,0,13,9,13,0,0,13,13,7,7,11,0,13,7,6,0,11,13,0,6,7,2,6,0,0,0,11,13,6,0,9,0,0,0,0,0,0,0,0,0,0,0,0,0,0,0,0,0,0,0,0,0,0,0,0,0,0,0,0,0,0,0,0,0,0,0,0,0],"split_type":[0,0,0,0,0,0,0,0,0,0,0,0,0,0,0,0,0,1,0,0,0,0,0,0,0,0,0,0,0,0,0,0,0,0,0,0,0,0,0,0,0,0,0,0,0,0,0,0,1,0,0,0,0,0,0,0,0,0,0,0,0,0,0,0,0,0,0,0,0,0,0,0,0,0,0,0,0,0,0,0,0,0,0,0,0,0,0,0,0,0,0,0,0,0,0],"sum_hessian":[8.8965E3,3.27225E3,5.62425E3,2.404875E3,8.67375E2,1.024125E3,4.600125E3,1.909125E3,4.9575E2,6.97125E2,1.7025E2,9.51375E2,7.275E1,3.74325E3,8.56875E2,1.891125E3,1.8E1,4.2375E2,7.2E1,5.3475E2,1.62375E2,3.8625E1,1.31625E2,8.95125E2,5.625E1,6E1,1.275E1,4.49625E2,3.293625E3,7.2375E1,7.845E2,1.3875E1,4.125E0,5.8875E1,3.64875E2,3.6375E1,3.5625E1,5.3025E2,4.5E0,1.1025E2,5.2125E1,3.3375E1,5.25E0,1.5E1,1.16625E2,8.43E2,5.2125E1,4.5E1,1.125E1,5.5125E1,4.875E0,4.125E0,8.625E0,3.06075E3,2.32875E2,6.0375E1,1.2E1,4.5E1,7.395E2,4.575E1,1.3125E1,3.38625E2,2.625E1,3.225E1,4.125E0,1.7625E1,1.8E1,4.63125E2,6.7125E1,1.06125E2,4.125E0,2.1375E1,3.075E1,2.625E1,7.125E0,1.0125E1,4.875E0,1.0575E2,1.0875E1,4.8E1,4.125E0,3.45E1,1.05E1,6E0,5.25E0,4.1625E1,1.35E1,1.50375E2,2.910375E3,5.4375E1,1.785E2,4.875E0,5.55E1,1.8375E1,2.6625E1],"tree_param":{"num_deleted":"0","num_feature":"14","num_nodes":"95","size_leaf_vector":"1"}},{"base_weights":[2.369111E-5,-3.4312966E-1,1.4555743E0,-4.1931596E-1,1.5305289E0,1.053997E0,1.8642354E0,-5.4520863E-1,-7.902509E-2,1.932264E0,-9.0543725E-2,7.121362E-1,2.7409104E-1,1.9064392E0,5.7959026E-1,-6.43631E-1,-3.942578E-1,-3.2040626E-1,1.9442251E0,1.6490042E0,2.745658E-1,-8.642306E-3,1.4266926E0,1.4838833E0,1.9583346E0,-1.9455627E-1,2.6043782E-1,-9.108629E-2,-5.322179E-1,-4.7072104E-1,1.058028E0,-4.4887522E-1,9.467085E-1,2.7316555E-1,6.2233E-3,1.054158E0,2.701427E-1,5.74961E-1,-3.9076188E-1,-5.342617E-1,1.5972487E0,7.524473E-1,2.676577E-1,2.7505365E-1,1.8675746E0,-4.8096952E-1,6.894915E-2,1.6470876E-2,-8.176664E-2,-7.1719654E-2,-1.6915806E-2,2.2047277E-1,-8.406222E-2,-6.666542E-2,3.339998E-2,2.7231738E-1,6.082348E-2,2.598732E-1,-1.2770442E-2,-5.9667192E-2,2.5740072E-1,-7.620814E-2,1.8022057E-2,-8.924412E-2,6.2233E-3,2.72368E-1,1.21574E-1,2.3334509E-1,-5.544912E-2,1.4205678E-1,2.73207E-1,-2.0986421E-2,-8.555369E-2],"categories":[1,2,3,0,1,0,1,2,2,1,2,3,1],"categories_nodes":[21,24,32,35,40,41],"categories_segments":[0,3,5,8,9,12],"categories_sizes":[3,2,3,1,3,1],"default_left":[0,0,0,0,0,0,0,0,0,0,0,0,0,0,0,0,0,0,0,0,0,1,0,0,1,0,0,0,0,0,0,0,1,0,0,1,0,0,0,0,1,1,0,0,0,0,0,0,0,0,0,0,0,0,0,0,0,0,0,0,0,0,0,0,0,0,0,0,0,0,0,0,0],"id":3,"left_children":[1,3,5,7,9,11,13,15,17,19,-1,21,-1,23,25,27,29,31,33,35,-1,37,39,41,43,45,-1,-1,47,49,51,53,55,-1,-1,57,-1,59,61,63,65,67,-1,-1,69,71,-1,-1,-1,-1,-1,-1,-1,-1,-1,-1,-1,-1,-1,-1,-1,-1,-1,-1,-1,-1,-1,-1,-1,-1,-1,-1,-1],"loss_changes":[4.443991E3,1.0280509E3,2.7738965E2,2.9635938E2,2.4811285E2,2.7371124E2,4.487915E1,7.4854614E1,9.131229E2,2.262207E0,0E0,3.240401E2,0E0,1.6141602E1,2.8234491E1,5.8721924E0,2.2175903E2,2.7212714E2,1.4939331E1,7.3193817E0,0E0,7.006248E1,1.0615869E2,2.9832031E1,4.267578E-1,3.6713955E0,0E0,0E0,1.7216835E1,3.303131E1,9.113933E1,3.712732E1,7.957408E1,0E0,0E0,1.6448895E1,0E0,1.6273293E2,1.6178947E1,1.7336445E0,7.8078064E1,3.9785248E1,0E0,0E0,2.0973633E1,5.1440597E-1,0E0,0E0,0E0,0E0,0E0,0E0,0E0,0E0,0E0,0E0,0E0,0E0,0E0,0E0,0E0,0E0,0E0,0E0,0E0,0E0,0E0,0E0,0E0,0E0,0E0,0E0,0E0],"parents":[2147483647,0,0,1,1,2,2,3,3,4,4,5,5,6,6,7,7,8,8,9,9,11,11,13,13,14,14,15,15,16,16,17,17,18,18,19,19,21,21,22,22,23,23,24,24,25,25,28,28,29,29,30,30,31,31,32,32,35,35,37,37,38,38,39,39,40,40,41,41,44,44,45,45],"right_children":[2,4,6,8,10,12,14,16,18,20,-1,22,-1,24,26,28,30,32,34,36,-1,38,40,42,44,46,-1,-1,48,50,52,54,56,-1,-1,58,-1,60,62,64,66,68,-1,-1,70,72,-1,-1,-1,-1,-1,-1,-1,-1,-1,-1,-1,-1,-1,-1,-1,-1,-1,-1,-1,-1,-1,-1,-1,-1,-1,-1,-1],"split_conditions":[2.62E1,3.17E2,1.5E2,1.73E1,1.81E1,2.33E1,9.3E0,1.01E1,3.99E1,3.5E2,-9.0543725E-2,3.24E1,2.7409104E-1,2.79E1,3.16E1,8.5E0,4.5E1,2.24E2,4.7E1,1.63E1,2.745658E-1,1E-45,2.5E1,2.24E2,1E-45,1.93E2,2.6043782E-1,-9.108629E-2,1.3E1,2.18E2,4E1,2.5E1,1E-45,2.7316555E-1,6.2233E-3,1E-45,2.701427E-1,3.6E1,1.28E2,2E1,1E-45,1E-45,2.676577E-1,2.7505365E-1,1.93E2,1.224E2,6.894915E-2,1.6470876E-2,-8.176664E-2,-7.1719654E-2,-1.6915806E-2,2.2047277E-1,-8.406222E-2,-6.666542E-2,3.339998E-2,2.7231738E-1,6.082348E-2,2.598732E-1,-1.2770442E-2,-5.9667192E-2,2.5740072E-1,-7.620814E-2,1.8022057E-2,-8.924412E-2,6.2233E-3,2.72368E-1,1.21574E-1,2.3334509E-1,-5.544912E-2,1.4205678E-1,2.73207E-1,-2.0986421E-2,-8.555369E-2],"split_indices":[12,13,13,12,10,10,10,12,10,13,0,12,0,12,12,12,10,13,13,12,0,2,13,13,2,13,0,0,13,13,13,10,2,0,0,2,0,13,13,13,2,2,0,0,13,7,0,0,0,0,0,0,0,0,0,0,0,0,0,0,0,0,0,0,0,0,0,0,0,0,0,0,0],"split_type":[0,0,0,0,0,0,0,0,0,0,0,0,0,0,0,0,0,0,0,0,0,1,0,0,1,0,0,0,0,0,0,0,1,0,0,1,0,0,0,0,1,1,0,0,0,0,0,0,0,0,0,0,0,0,0,0,0,0,0,0,0,0,0,0,0,0,0,0,0,0,0,0,0],"sum_hessian":[8.896125E3,7.19925E3,1.696875E3,6.918375E3,2.80875E2,8.56875E2,8.4E2,5.04975E3,1.868625E3,2.37375E2,4.35E1,6.285E2,2.28375E2,8.13E2,2.7E1,3.0555E3,1.99425E3,1.669875E3,1.9875E2,4.5375E1,1.92E2,3.13125E2,3.15375E2,9.075E1,7.2225E2,1.725E1,9.75E0,2.629125E3,4.26375E2,1.894875E3,9.9375E1,1.5165E3,1.53375E2,1.94625E2,4.125E0,1.65E1,2.8875E1,1.2375E2,1.89375E2,2.5125E1,2.9025E2,3.5625E1,5.5125E1,4.95375E2,2.26875E2,1.2375E1,4.875E0,3.675E1,3.89625E2,1.655625E3,2.3925E2,7.5E1,2.4375E1,1.443E3,7.35E1,4.9875E1,1.035E2,9.375E0,7.125E0,6.975E1,5.4E1,1.44375E2,4.5E1,2.1E1,4.125E0,1.88625E2,1.01625E2,1.95E1,1.6125E1,2.85E1,1.98375E2,4.125E0,8.25E0],"tree_param":{"num_deleted":"0","num_feature":"14","num_nodes":"73","size_leaf_vector":"1"}},{"base_weights":[1.14090406E-4,1.2656578E0,-3.1431907E-1,1.438409E0,1.4301282E-1,1.2232567E-1,-5.6750005E-1,1.5158371E0,1.2199978E0,1.0656717E0,-3.825635E-1,1.0531496E0,-8.34652E-2,-3.71942E-1,-6.140904E-1,2.1223126E-1,1.4158067E0,1.4282662E0,3.470868E-1,1.3904343E0,2.64842E-1,1.7023993E-1,-4.649125E-1,1.3511851E0,3.820276E-1,2.9948714E-1,-3.4231117E-1,-9.320928E-3,-4.3357646E-1,-5.541884E-1,-6.372913E-1,2.1086006E-1,1.0271617E0,2.1208033E-1,1.1234213E0,8.358503E-1,-6.402645E-2,2.1199766E-1,9.976239E-1,1.8038835E-1,-3.9619723E-1,-1.1010845E-1,-6.09322E-1,1.4684541E0,9.77695E-1,1.6127592E0,1.9245774E-1,-9.86986E-2,1.1313056E0,5.0955385E-1,-5.3356916E-1,-3.2106858E-1,1.4542574E0,1.0887231E-1,-4.4373164E-1,-3.970019E-1,-8.8881396E-2,-6.168294E-1,-8.935891E-2,1.7894527E-1,6.999052E-2,1.9734769E-1,3.6643423E-2,1.5124443E-1,2.9365923E-2,4.277338E-2,-6.8472676E-2,1.9077396E-1,3.2098014E-2,-7.4972205E-2,-6.7649744E-3,4.5457393E-2,-8.109346E-2,-2.2059064E-2,-8.644893E-2,2.1428691E-1,1.8498054E-1,1.5595494E-1,-2.9475037E-2,2.4079823E-1,1.40235E-1,1.9960092E-1,-1.0351619E-2,-6.1178863E-2,1.6647073E-2,1.2264856E-1,2.1483926E-1,1.4740252E-2,2.0810589E-1,-3.8920492E-2,-8.6126596E-2,1.2898274E-1,-6.0979128E-2,9.555155E-2,2.5280684E-1,-1.3499277E-3,-6.43491E-2,-6.455921E-2,1.7901254E-1,-7.069723E-2,-8.928806E-2],"categories":[0,0,3,0,3,3,0,1,3,1,3,1,3],"categories_nodes":[12,13,24,29,36,41,57],"categories_segments":[0,1,3,5,6,9,11],"categories_sizes":[1,2,2,1,3,2,2],"default_left":[0,0,0,0,0,0,0,0,0,0,0,0,1,1,0,0,0,0,0,0,0,0,0,0,1,0,0,0,0,1,0,0,0,0,0,0,1,0,0,0,0,1,0,0,0,0,0,0,0,0,0,0,0,0,0,0,0,1,0,0,0,0,0,0,0,0,0,0,0,0,0,0,0,0,0,0,0,0,0,0,0,0,0,0,0,0,0,0,0,0,0,0,0,0,0,0,0,0,0,0,0],"id":4,"left_children":[1,3,5,7,9,11,13,15,17,19,21,23,25,27,29,-1,31,33,35,37,39,-1,41,43,45,47,49,51,53,55,57,-1,59,-1,61,63,65,-1,67,-1,69,71,73,75,77,79,81,83,85,87,89,91,93,-1,95,97,-1,99,-1,-1,-1,-1,-1,-1,-1,-1,-1,-1,-1,-1,-1,-1,-1,-1,-1,-1,-1,-1,-1,-1,-1,-1,-1,-1,-1,-1,-1,-1,-1,-1,-1,-1,-1,-1,-1,-1,-1,-1,-1,-1,-1],"loss_changes":[3.5202021E3,3.4125977E2,7.833794E2,2.4698242E1,1.14401474E2,4.9831802E2,4.07041E1,1.5910645E0,7.278137E1,2.199984E1,2.0323908E1,9.386255E1,2.1124692E2,1.9302109E1,4.7958984E0,0E0,9.671539E0,1.0053955E1,1.5776543E1,2.6370316E0,1.7865044E1,0E0,7.2872753E0,1.3405823E1,3.3739586E1,2.8478165E2,2.0731898E2,5.780353E1,9.360977E0,1.4407196E1,3.6071777E-1,0E0,7.47538E0,0E0,2.3463287E1,5.6793804E0,7.0622125E0,0E0,5.2001286E0,0E0,7.8338575E-1,9.020802E0,7.6369095E-1,1.4732056E0,1.4866882E1,4.9789047E-1,4.279179E1,4.419861E1,2.7877136E1,9.396686E1,2.3839142E1,1.622314E1,5.673115E0,0E0,7.500458E0,4.6042427E1,0E0,2.9247437E0,0E0,0E0,0E0,0E0,0E0,0E0,0E0,0E0,0E0,0E0,0E0,0E0,0E0,0E0,0E0,0E0,0E0,0E0,0E0,0E0,0E0,0E0,0E0,0E0,0E0,0E0,0E0,0E0,0E0,0E0,0E0,0E0,0E0,0E0,0E0,0E0,0E0,0E0,0E0,0E0,0E0,0E0,0E0],"parents":[2147483647,0,0,1,1,2,2,3,3,4,4,5,5,6,6,7,7,8,8,9,9,10,10,11,11,12,12,13,13,14,14,16,16,17,17,18,18,19,19,20,20,22,22,23,23,24,24,25,25,26,26,27,27,28,28,29,29,30,30,32,32,34,34,35,35,36,36,38,38,40,40,41,41,42,42,43,43,44,44,45,45,46,46,47,47,48,48,49,49,50,50,51,51,52,52,54,54,55,55,57,57],"right_children":[2,4,6,8,10,12,14,16,18,20,22,24,26,28,30,-1,32,34,36,38,40,-1,42,44,46,48,50,52,54,56,58,-1,60,-1,62,64,66,-1,68,-1,70,72,74,76,78,80,82,84,86,88,90,92,94,-1,96,98,-1,100,-1,-1,-1,-1,-1,-1,-1,-1,-1,-1,-1,-1,-1,-1,-1,-1,-1,-1,-1,-1,-1,-1,-1,-1,-1,-1,-1,-1,-1,-1,-1,-1,-1,-1,-1,-1,-1,-1,-1,-1,-1,-1,-1],"split_conditions":[1.365E2,1.26E2,5.3E1,1.003E2,8.15E1,2.493E2,8.3E1,8.39E1,6.7E1,9.3E1,2.6E1,1.026E2,1E-45,1E-45,1.23E2,2.1223126E-1,6.3E1,4.4E1,1.035E2,6.5E1,5.56E1,1.7023993E-1,9.5E1,3.4E1,1E-45,1.323E2,1E1,5E0,7.26E1,1E-45,1.74E2,2.1086006E-1,1.056E2,2.1208033E-1,1.012E2,9.1E1,1E-45,2.1199766E-1,6.79E1,1.8038835E-1,7.47E1,1E-45,1.284E2,8.54E1,2.172E2,2.389E2,9E0,1.016E2,1.57E2,1.28E2,1.8E1,8.1E1,6E0,1.0887231E-1,1.706E2,7E0,-8.8881396E-2,1E-45,-8.935891E-2,1.7894527E-1,6.999052E-2,1.9734769E-1,3.6643423E-2,1.5124443E-1,2.9365923E-2,4.277338E-2,-6.8472676E-2,1.9077396E-1,3.2098014E-2,-7.4972205E-2,-6.7649744E-3,4.5457393E-2,-8.109346E-2,-2.2059064E-2,-8.644893E-2,2.1428691E-1,1.8498054E-1,1.5595494E-1,-2.9475037E-2,2.4079823E-1,1.40235E-1,1.9960092E-1,-1.0351619E-2,-6.1178863E-2,1.6647073E-2,1.2264856E-1,2.1483926E-1,1.4740252E-2,2.0810589E-1,-3.8920492E-2,-8.6126596E-2,1.2898274E-1,-6.0979128E-2,9.555155E-2,2.5280684E-1,-1.3499277E-3,-6.43491E-2,-6.455921E-2,1.7901254E-1,-7.069723E-2,-8.928806E-2],"split_indices":[11,7,13,11,11,11,13,11,13,13,13,7,2,2,13,0,13,13,7,13,11,0,13,13,2,7,13,9,7,2,13,0,7,0,7,13,2,0,11,0,11,2,7,7,11,11,13,7,7,7,13,7,9,0,11,9,0,2,0,0,0,0,0,0,0,0,0,0,0,0,0,0,0,0,0,0,0,0,0,0,0,0,0,0,0,0,0,0,0,0,0,0,0,0,0,0,0,0,0,0,0],"split_type":[0,0,0,0,0,0,0,0,0,0,0,0,1,1,0,0,0,0,0,0,0,0,0,0,1,0,0,0,0,1,0,0,0,0,0,0,1,0,0,0,0,1,0,0,0,0,0,0,0,0,0,0,0,0,0,0,0,1,0,0,0,0,0,0,0,0,0,0,0,0,0,0,0,0,0,0,0,0,0,0,0,0,0,0,0,0,0,0,0,0,0,0,0,0,0,0,0,0,0,0,0],"sum_hessian":[8.84514E3,1.7599832E3,7.0851562E3,1.5251141E3,2.3486894E2,2.6004512E3,4.484705E3,1.123464E3,4.016502E2,8.5062294E1,1.4980666E2,4.704606E2,2.1299905E3,8.63967E2,3.620738E3,8.878592E2,2.356048E2,3.239674E2,7.768281E1,6.020293E1,2.485936E1,6.8627815E0,1.4294388E2,3.2536642E2,1.4509418E2,8.5895886E2,1.2710317E3,1.2569673E2,7.3827026E2,1.0150581E3,2.60568E3,1.8025934E2,5.5345467E1,2.3517616E2,8.879123E1,3.527943E1,4.240338E1,4.240949E1,1.7793442E1,9.448639E0,1.5410721E1,4.170284E1,1.01241035E2,2.4633832E2,7.9028114E1,1.8799208E1,1.2629497E2,5.811794E2,2.777795E2,2.3284358E2,1.0381881E3,1.039927E2,2.1704033E1,5.7012057E0,7.325691E2,3.7435022E2,6.407079E2,9.613934E2,1.6442866E3,3.5704037E1,1.964143E1,6.491457E1,2.3876656E1,2.4477907E1,1.0801524E1,2.2772572E1,1.9630808E1,1.1479141E1,6.314301E0,1.0502681E1,4.9080396E0,2.1771736E1,1.9931103E1,4.309133E0,9.69319E1,1.4076276E2,1.05575554E2,6.9984146E1,9.043967E0,1.4389629E1,4.409578E0,2.1775135E1,1.0451983E2,2.2564877E2,3.5553058E2,1.7913062E2,9.86489E1,1.6656656E2,6.627703E1,2.7921558E2,7.589726E2,8.836449E0,9.515625E1,7.7984567E0,1.3905577E1,3.7979572E1,6.945895E2,3.595315E2,1.4818741E1,2.2803496E2,7.3335846E2],"tree_param":{"num_deleted":"0","num_feature":"14","num_nodes":"101","size_leaf_vector":"1"}},{"base_weights":[7.78509E-4,4.09583E-1,-5.236141E-1,7.4742585E-1,-6.0096323E-1,-1.9442983E-1,-5.851377E-1,1.6325341E-1,1.0015495E0,-8.773959E-2,-6.503996E-1,-4.038644E-1,5.1347464E-1,-4.688734E-1,-6.298429E-1,9.884611E-1,-1.9827221E-1,-1.7432968E-1,1.1899079E0,-3.6015138E-1,5.551455E-1,-5.2276707E-1,-8.990202E-2,-4.9144393E-1,-2.1921486E-1,1.0136347E0,-3.1758052E-1,-5.484874E-1,-3.186754E-1,-5.8945715E-1,-8.8686176E-2,1.3264068E0,3.1204847E-1,-3.6372146E-1,6.863175E-2,-3.355863E-1,9.52025E-1,1.2952311E0,-1.590869E-1,-8.8444404E-2,-1.5852238E-1,7.904463E-1,-8.302709E-2,-8.766315E-2,1.933753E-3,-5.3348976E-1,-3.259834E-1,1.6546121E-1,-2.7074057E-1,1.1082939E0,-5.8401152E-2,-6.8828734E-3,-5.4863703E-1,-3.3451173E-1,-5.7184136E-1,2.8104922E-1,-3.981714E-1,-8.9001454E-2,-4.347192E-1,-5.9813768E-2,1.8904848E-1,-1.4001942E-3,1.9976999E-1,-2.577714E-2,-6.80242E-2,8.136926E-2,-1.6657438E-2,-8.451522E-2,-4.977543E-3,2.0404777E-1,5.168808E-2,-4.791367E-2,1.8247314E-1,1.1232016E-1,-5.6585673E-2,-5.619961E-2,3.5720237E-2,-5.630438E-2,1.4173059E-1,-7.601296E-2,-5.3610284E-2,2.4952209E-2,-6.000315E-2,-4.99302E-2,1.1651966E-2,1.6317496E-1,-2.6347052E-2,1.13321535E-1,-4.7578428E-2,-5.0807796E-2,-8.7683424E-2,-6.41145E-2,3.4569055E-3,-7.538627E-2,-8.738459E-2,1.6285814E-1,8.905793E-3,-4.48837E-2,-8.870862E-2,-4.584749E-2,-8.0987014E-2],"categories":[0,0,0,2],"categories_nodes":[23,29,48,54],"categories_segments":[0,1,2,3],"categories_sizes":[1,1,1,1],"default_left":[0,0,0,0,0,0,0,0,0,0,0,0,0,0,0,0,0,0,0,0,0,0,0,1,0,0,0,0,0,1,0,0,0,0,0,0,0,0,0,0,0,0,0,0,0,0,0,0,1,0,0,0,0,0,1,0,0,0,0,0,0,0,0,0,0,0,0,0,0,0,0,0,0,0,0,0,0,0,0,0,0,0,0,0,0,0,0,0,0,0,0,0,0,0,0,0,0,0,0,0,0],"id":5,"left_children":[1,3,5,7,9,11,13,15,17,19,21,23,25,27,29,31,33,35,37,39,41,43,-1,45,47,49,51,53,55,57,-1,59,61,63,65,67,69,71,73,-1,75,77,-1,-1,-1,79,81,-1,83,85,-1,87,89,91,93,95,97,-1,99,-1,-1,-1,-1,-1,-1,-1,-1,-1,-1,-1,-1,-1,-1,-1,-1,-1,-1,-1,-1,-1,-1,-1,-1,-1,-1,-1,-1,-1,-1,-1,-1,-1,-1,-1,-1,-1,-1,-1,-1,-1,-1],"loss_changes":[1.8961927E3,1.6971971E3,7.8382935E1,5.5290625E2,3.1544495E1,9.070265E1,1.6764526E1,3.372571E2,5.751101E2,1.9387924E1,1.4291382E-1,7.5454025E0,5.8269474E1,1.0740646E1,1.107605E0,7.843265E1,3.4742016E1,6.532708E1,3.180725E2,4.3368883E0,9.242719E0,1.5845871E0,0E0,2.0954742E0,1.1335591E1,1.2171257E1,3.7715697E0,2.8255005E0,1.514616E1,5.2986298E0,0E0,1.921524E1,4.244034E1,1.109317E1,2.9891558E1,2.615342E1,1.3395649E1,1.0293457E2,4.007063E1,0E0,4.876718E0,8.17416E0,0E0,0E0,0E0,5.2760315E-1,3.7464175E0,0E0,4.862797E0,8.367851E0,0E0,6.646012E0,3.132801E-1,2.84548E0,5.818939E-1,7.1842203E0,4.8157043E0,0E0,2.5048103E0,0E0,0E0,0E0,0E0,0E0,0E0,0E0,0E0,0E0,0E0,0E0,0E0,0E0,0E0,0E0,0E0,0E0,0E0,0E0,0E0,0E0,0E0,0E0,0E0,0E0,0E0,0E0,0E0,0E0,0E0,0E0,0E0,0E0,0E0,0E0,0E0,0E0,0E0,0E0,0E0,0E0,0E0],"parents":[2147483647,0,0,1,1,2,2,3,3,4,4,5,5,6,6,7,7,8,8,9,9,10,10,11,11,12,12,13,13,14,14,15,15,16,16,17,17,18,18,19,19,20,20,21,21,23,23,24,24,25,25,26,26,27,27,28,28,29,29,31,31,32,32,33,33,34,34,35,35,36,36,37,37,38,38,40,40,41,41,45,45,46,46,48,48,49,49,51,51,52,52,53,53,54,54,55,55,56,56,58,58],"right_children":[2,4,6,8,10,12,14,16,18,20,22,24,26,28,30,32,34,36,38,40,42,44,-1,46,48,50,52,54,56,58,-1,60,62,64,66,68,70,72,74,-1,76,78,-1,-1,-1,80,82,-1,84,86,-1,88,90,92,94,96,98,-1,100,-1,-1,-1,-1,-1,-1,-1,-1,-1,-1,-1,-1,-1,-1,-1,-1,-1,-1,-1,-1,-1,-1,-1,-1,-1,-1,-1,-1,-1,-1,-1,-1,-1,-1,-1,-1,-1,-1,-1,-1,-1,-1],"split_conditions":[1.59E1,5.83E1,1.82E1,1.2E1,6.19E1,1.97E1,2.2E1,2.083E2,1.081E2,4.9E0,6.3E1,9.6E0,5.163E2,1.17E1,2.52E1,1.06E1,6E0,5E0,5.828E2,1.003E2,4.141E2,1.68E2,-8.990202E-2,1E-45,2.127E2,1.62E2,6.213E2,1.494E2,3.283E2,1E-45,-8.8686176E-2,1.7E0,4.8E0,2.829E2,2.975E2,7E1,4.4E1,1.8E0,1.207E2,-8.8444404E-2,1.089E2,1.029E2,-8.302709E-2,-8.766315E-2,1.933753E-3,3.2E1,2.083E2,1.6546121E-1,1E-45,4.5E1,-5.8401152E-2,1.29E2,1.67E1,1.432E2,1E-45,1.364E2,4.47E1,-8.9001454E-2,1.534E2,-5.9813768E-2,1.8904848E-1,-1.4001942E-3,1.9976999E-1,-2.577714E-2,-6.80242E-2,8.136926E-2,-1.6657438E-2,-8.451522E-2,-4.977543E-3,2.0404777E-1,5.168808E-2,-4.791367E-2,1.8247314E-1,1.1232016E-1,-5.6585673E-2,-5.619961E-2,3.5720237E-2,-5.630438E-2,1.4173059E-1,-7.601296E-2,-5.3610284E-2,2.4952209E-2,-6.000315E-2,-4.99302E-2,1.1651966E-2,1.6317496E-1,-2.6347052E-2,1.13321535E-1,-4.7578428E-2,-5.0807796E-2,-8.7683424E-2,-6.41145E-2,3.4569055E-3,-7.538627E-2,-8.738459E-2,1.6285814E-1,8.905793E-3,-4.48837E-2,-8.870862E-2,-4.584749E-2,-8.0987014E-2],"split_indices":[12,10,12,10,10,10,12,11,11,12,10,10,11,10,12,12,10,12,11,11,11,11,0,5,11,8,11,8,11,5,0,12,10,11,11,11,10,12,8,0,8,11,0,0,0,4,11,0,5,10,0,8,12,8,5,8,10,0,7,0,0,0,0,0,0,0,0,0,0,0,0,0,0,0,0,0,0,0,0,0,0,0,0,0,0,0,0,0,0,0,0,0,0,0,0,0,0,0,0,0,0],"split_type":[0,0,0,0,0,0,0,0,0,0,0,0,0,0,0,0,0,0,0,0,0,0,0,1,0,0,0,0,0,1,0,0,0,0,0,0,0,0,0,0,0,0,0,0,0,0,0,0,1,0,0,0,0,0,1,0,0,0,0,0,0,0,0,0,0,0,0,0,0,0,0,0,0,0,0,0,0,0,0,0,0,0,0,0,0,0,0,0,0,0,0,0,0,0,0,0,0,0,0,0,0],"sum_hessian":[8.844197E3,4.969939E3,3.8742583E3,3.7248403E3,1.2450988E3,6.105207E2,3.2637375E3,1.1294739E3,2.5953665E3,1.0959765E2,1.1355011E3,4.7135583E2,1.3916484E2,9.083805E2,2.3553572E3,3.43831E2,7.856429E2,3.5831564E2,2.2370508E3,7.718812E1,3.2409534E1,2.489054E1,1.1106106E3,3.189643E2,1.5239154E2,8.683393E1,5.2330906E1,5.9258624E2,3.1579425E2,6.224597E2,1.7328975E3,2.2889609E2,1.149349E2,4.8497003E2,3.0067288E2,3.1380212E2,4.45135E1,2.0750884E3,1.619625E2,3.1593775E1,4.5594345E1,2.7107058E1,5.3024745E0,2.051009E1,4.3804507E0,2.5319115E2,6.577316E1,4.885542E0,1.47506E2,8.161157E1,5.222363E0,2.2627687E1,2.970322E1,5.928885E1,5.3329736E2,3.674315E1,2.7905112E2,4.5351804E2,1.6894167E2,5.773872E0,2.2312222E2,8.997739E1,2.495751E1,2.0669856E2,2.7827145E2,7.98279E1,2.2084497E2,1.6229141E2,1.5151071E2,2.2718475E1,2.1795025E1,3.7195625E1,2.0378927E3,3.2977333E1,1.2898517E2,2.86107E1,1.6983644E1,4.412587E0,2.2694471E1,2.2265463E2,3.0536514E1,1.1581141E1,5.4192017E1,1.1727472E2,3.0231276E1,7.712749E1,4.4840803E0,6.30121E0,1.6326477E1,1.084869E1,1.885453E1,4.3407646E1,1.5881205E1,3.8880338E2,1.44494E2,6.6096134E0,3.0133535E1,2.1686725E2,6.2183865E1,1.0278678E2,6.615488E1],"tree_param":{"num_deleted":"0","num_feature":"14","num_nodes":"101","size_leaf_vector":"1"}},{"base_weights":[1.5856015E-3,-5.5577654E-1,3.6521915E-1,-6.275713E-1,5.496798E-2,6.18176E-1,-5.5115175E-1,-6.454791E-1,-5.0860536E-1,-5.9599453E-1,8.082007E-1,-9.00824E-2,8.367357E-1,-2.4567014E-1,-6.315729E-1,-8.929905E-2,-5.7820773E-1,-6.2876844E-1,2.3247857E-1,-8.879759E-2,-1.3877973E-1,1.1254408E0,-6.150557E-1,-5.95885E-1,9.904127E-1,-6.4443207E-1,3.6868766E-1,5.456079E-3,-6.3681173E-1,-8.9077264E-2,-3.4992743E-1,-6.4792854E-1,-1.3580973E-2,-3.5903814E-1,1.2822971E0,-5.593045E-1,1.3514887E-1,1.4296253E0,-8.621479E-2,-9.3178265E-2,-3.169357E-2,-6.287868E-1,-0E0,1.1546836E0,-2.6459354E-1,-4.5881072E-1,-9.056425E-2,8.798765E-1,-4.8135087E-1,-5.235454E-1,-9.0399005E-2,-8.737623E-2,4.543651E-2,-9.031704E-2,-6.992298E-2,-8.270049E-2,1.1523428E-1,-8.882756E-2,4.7002263E-2,-3.6046453E-4,2.2745296E-1,-8.515255E-2,-4.8998553E-2,-7.818325E-3,2.1557368E-1,-8.902714E-2,-6.438501E-2,-4.4995263E-2,1.0237923E-1,1.0844958E-1,1.8084423E-1,7.0860974E-2,-7.510915E-2,-2.1818541E-2,-8.317428E-2,-8.24388E-2,1.4289077E-1,-1.4579326E-2,-8.771305E-2,-3.6267616E-2,-9.0612546E-2],"categories":[1,3,0,2],"categories_nodes":[10,13,33],"categories_segments":[0,2,3],"categories_sizes":[2,1,1],"default_left":[0,0,0,0,0,0,0,0,0,0,1,0,0,1,0,0,0,0,0,0,0,0,0,0,0,0,0,0,0,0,0,0,0,1,0,0,0,0,0,0,0,0,0,0,0,0,0,0,0,0,0,0,0,0,0,0,0,0,0,0,0,0,0,0,0,0,0,0,0,0,0,0,0,0,0,0,0,0,0,0,0],"id":6,"left_children":[1,3,5,7,9,11,13,15,17,19,21,-1,23,25,27,-1,29,31,33,-1,35,37,39,41,43,45,47,-1,49,-1,51,53,55,57,59,61,-1,63,-1,-1,-1,65,67,69,71,73,-1,75,77,79,-1,-1,-1,-1,-1,-1,-1,-1,-1,-1,-1,-1,-1,-1,-1,-1,-1,-1,-1,-1,-1,-1,-1,-1,-1,-1,-1,-1,-1,-1,-1],"loss_changes":[1.7941714E3,1.53297E2,1.2420247E3,6.441162E0,1.8074857E2,1.1679858E3,2.8359924E1,3.187256E-1,3.678518E1,4.3467407E0,7.755348E1,0E0,7.892742E2,5.955986E1,3.262085E0,0E0,1.8108826E0,4.1504974E0,3.6197685E1,0E0,9.648207E0,7.50853E1,6.281128E-1,6.798401E0,6.6744824E2,1.5884018E-1,4.185927E1,0E0,1.8066406E0,0E0,6.005804E0,1.6320801E-1,5.9165998E0,7.623254E0,1.0035797E1,2.1823883E-2,0E0,2.4270859E1,0E0,0E0,0E0,7.395935E-1,4.6791787E0,1.6617358E2,8.225175E1,4.3607426E-1,0E0,1.4371239E1,2.0560036E0,4.708687E0,0E0,0E0,0E0,0E0,0E0,0E0,0E0,0E0,0E0,0E0,0E0,0E0,0E0,0E0,0E0,0E0,0E0,0E0,0E0,0E0,0E0,0E0,0E0,0E0,0E0,0E0,0E0,0E0,0E0,0E0,0E0],"parents":[2147483647,0,0,1,1,2,2,3,3,4,4,5,5,6,6,7,7,8,8,9,9,10,10,12,12,13,13,14,14,16,16,17,17,18,18,20,20,21,21,22,22,23,23,24,24,25,25,26,26,28,28,30,30,31,31,32,32,33,33,34,34,35,35,37,37,41,41,42,42,43,43,44,44,45,45,47,47,48,48,49,49],"right_children":[2,4,6,8,10,12,14,16,18,20,22,-1,24,26,28,-1,30,32,34,-1,36,38,40,42,44,46,48,-1,50,-1,52,54,56,58,60,62,-1,64,-1,-1,-1,66,68,70,72,74,-1,76,78,80,-1,-1,-1,-1,-1,-1,-1,-1,-1,-1,-1,-1,-1,-1,-1,-1,-1,-1,-1,-1,-1,-1,-1,-1,-1,-1,-1,-1,-1,-1,-1],"split_conditions":[1.2E1,1.72E2,2.99E1,1.02E1,8.5E0,2.8E1,3.24E1,1.44E2,4.81E1,7.5E0,1E-45,-9.00824E-2,1.8E1,1E-45,2.564E2,-8.929905E-2,8.2E0,1.53E2,8.3E1,-8.879759E-2,5.37E1,3.5E2,5.64E1,1.7E1,2.76E2,3.173E2,4.8E1,5.456079E-3,3.89E1,-8.9077264E-2,3.96E1,4.52E1,2.232E2,1E-45,2.15E2,1.72E2,1.3514887E-1,3.39E1,-8.621479E-2,-9.3178265E-2,-3.169357E-2,1.5E1,1.28E2,8E1,1.69E1,1.78E2,-9.056425E-2,1.1E1,5.41E1,3.48E1,-9.0399005E-2,-8.737623E-2,4.543651E-2,-9.031704E-2,-6.992298E-2,-8.270049E-2,1.1523428E-1,-8.882756E-2,4.7002263E-2,-3.6046453E-4,2.2745296E-1,-8.515255E-2,-4.8998553E-2,-7.818325E-3,2.1557368E-1,-8.902714E-2,-6.438501E-2,-4.4995263E-2,1.0237923E-1,1.0844958E-1,1.8084423E-1,7.0860974E-2,-7.510915E-2,-2.1818541E-2,-8.317428E-2,-8.24388E-2,1.4289077E-1,-1.4579326E-2,-8.771305E-2,-3.6267616E-2,-9.0612546E-2],"split_indices":[12,13,12,12,12,6,12,13,6,12,2,0,13,5,11,0,12,13,13,0,6,13,6,13,13,11,6,0,6,0,6,6,11,5,11,7,0,6,0,0,0,13,7,13,12,13,0,6,6,12,0,0,0,0,0,0,0,0,0,0,0,0,0,0,0,0,0,0,0,0,0,0,0,0,0,0,0,0,0,0,0],"split_type":[0,0,0,0,0,0,0,0,0,0,1,0,0,1,0,0,0,0,0,0,0,0,0,0,0,0,0,0,0,0,0,0,0,1,0,0,0,0,0,0,0,0,0,0,0,0,0,0,0,0,0,0,0,0,0,0,0,0,0,0,0,0,0,0,0,0,0,0,0,0,0,0,0,0,0,0,0,0,0,0,0],"sum_hessian":[8.85139E3,3.4946086E3,5.356781E3,3.127063E3,3.675456E2,4.1981367E3,1.1586442E3,2.7155786E3,4.114844E2,1.9718962E2,1.7035596E2,6.1519806E2,3.5829387E3,2.4201486E2,9.166293E2,2.5905193E3,1.2505928E2,3.541889E2,5.729549E1,1.778414E2,1.9348225E1,1.394198E2,3.0936165E1,3.469323E2,3.2360066E3,1.4678104E2,9.5233826E1,7.0136538E0,9.096156E2,9.521573E1,2.9843546E1,3.434012E2,1.0787702E1,3.684945E1,2.0446041E1,1.4289324E1,5.058901E0,1.1889418E2,2.0525612E1,2.622166E1,4.714504E0,3.2871518E2,1.8217134E1,2.8615283E3,3.744782E2,1.1320837E1,1.3546019E2,5.9487194E1,3.574663E1,1.3765596E2,7.7195966E2,2.1101622E1,8.741925E0,3.2258597E2,2.0815247E1,6.5031295E0,4.284572E0,2.6231936E1,1.0617512E1,4.664263E0,1.5781779E1,1.006971E1,4.219614E0,9.976244E0,1.0891794E2,2.942916E2,3.4423595E1,1.2885522E1,5.331612E0,8.6531586E2,1.9962124E3,9.907441E1,2.754038E2,4.1458244E0,7.175012E0,5.572587E0,5.3914604E1,1.0818308E1,2.4928324E1,4.757835E1,9.0077614E1],"tree_param":{"num_deleted":"0","num_feature":"14","num_nodes":"81","size_leaf_vector":"1"}},{"base_weights":[4.9284154E-5,-3.316567E-1,1.1517467E0,-4.7945946E-1,5.2587982E-2,6.805796E-1,1.3740435E0,-6.26468E-1,-3.277207E-1,-1.3508008E-1,1.5205677E0,5.130952E-1,2.0977339E-1,1.1804341E0,1.4911299E0,-3.9595872E-1,-6.3782907E-1,-3.8926578E-1,5.361234E-1,8.509029E-1,-2.1310715E-1,1.118481E0,2.1378638E-1,8.412737E-1,-2.3081848E-1,1.3675164E0,7.8844976E-1,1.4148576E0,2.1464638E-1,-8.048566E-2,-5.291261E-1,-6.390294E-1,-2.8145555E-1,-5.73098E-1,-2.6820123E-1,-9.185478E-2,1.2262299E0,2.4539687E-1,1.0633008E0,3.990173E-2,-3.6926767E-1,1.8700497E-1,5.985368E-2,6.345876E-1,1.4140646E0,-3.681811E-1,1.2576885E0,1.3213106E0,2.158381E-1,5.757256E-1,2.098353E-1,1.3709906E0,2.1765864E-1,9.081194E-2,-2.8458597E-2,-8.76189E-2,-6.2080882E-2,-8.8612475E-2,-8.208928E-2,4.0916023E-3,-7.860541E-2,-5.728403E-2,-8.507602E-2,-2.5074348E-2,-4.9148064E-2,-5.394298E-2,1.9393018E-1,1.1354902E-1,2.1431513E-1,-2.9234476E-2,1.0974021E-1,1.6524826E-1,1.0626477E-1,4.7797676E-2,-2.0803563E-2,-5.7179905E-2,3.0857349E-2,1.7708413E-1,5.5404823E-2,2.012647E-1,1.3807735E-1,-6.360897E-2,5.171354E-3,1.04002275E-1,2.0757815E-1,-0E0,1.8476634E-1,1.9646595E-1,4.854184E-2,1.8427132E-1,2.1201882E-1],"categories":[0,1,0,2,2,2,1],"categories_nodes":[13,15,21,23,24,27,39],"categories_segments":[0,1,2,3,4,5,6],"categories_sizes":[1,1,1,1,1,1,1],"default_left":[0,0,0,0,0,0,0,0,0,0,0,0,0,1,0,1,0,0,0,0,0,1,0,1,1,0,0,1,0,0,0,0,0,0,0,0,0,0,0,1,0,0,0,0,0,0,0,0,0,0,0,0,0,0,0,0,0,0,0,0,0,0,0,0,0,0,0,0,0,0,0,0,0,0,0,0,0,0,0,0,0,0,0,0,0,0,0,0,0,0,0],"id":7,"left_children":[1,3,5,7,9,11,13,15,17,19,21,23,-1,25,27,29,31,33,35,37,39,41,-1,43,45,47,49,51,-1,53,55,57,59,61,63,65,67,69,71,73,75,-1,-1,77,79,81,83,85,-1,87,-1,89,-1,-1,-1,-1,-1,-1,-1,-1,-1,-1,-1,-1,-1,-1,-1,-1,-1,-1,-1,-1,-1,-1,-1,-1,-1,-1,-1,-1,-1,-1,-1,-1,-1,-1,-1,-1,-1,-1,-1],"loss_changes":[3.381359E3,3.9029883E2,2.067185E2,1.10560425E2,5.261931E2,8.924051E1,2.941919E1,6.4231567E0,1.3001352E2,1.3035507E2,1.763092E0,1.2978706E2,0E0,3.668152E1,3.0216064E0,4.9924717E0,8.9404297E-1,5.0655884E1,7.06109E1,1.5788673E1,6.2040794E1,2.5730515E0,0E0,4.3083008E1,3.3533485E1,1.9528809E0,2.5401237E1,1.6276245E0,0E0,3.4487214E0,5.091343E-1,2.133789E-1,8.52719E-1,6.192505E0,1.0463089E1,3.8802288E1,9.506386E0,8.450687E0,3.0871582E0,3.5217445E1,2.6577652E1,0E0,0E0,4.0795723E1,1.0242767E0,5.72188E0,1.0394974E0,7.744171E0,0E0,2.427256E1,0E0,5.419922E-1,0E0,0E0,0E0,0E0,0E0,0E0,0E0,0E0,0E0,0E0,0E0,0E0,0E0,0E0,0E0,0E0,0E0,0E0,0E0,0E0,0E0,0E0,0E0,0E0,0E0,0E0,0E0,0E0,0E0,0E0,0E0,0E0,0E0,0E0,0E0,0E0,0E0,0E0,0E0],"parents":[2147483647,0,0,1,1,2,2,3,3,4,4,5,5,6,6,7,7,8,8,9,9,10,10,11,11,13,13,14,14,15,15,16,16,17,17,18,18,19,19,20,20,21,21,23,23,24,24,25,25,26,26,27,27,29,29,30,30,31,31,32,32,33,33,34,34,35,35,36,36,37,37,38,38,39,39,40,40,43,43,44,44,45,45,46,46,47,47,49,49,51,51],"right_children":[2,4,6,8,10,12,14,16,18,20,22,24,-1,26,28,30,32,34,36,38,40,42,-1,44,46,48,50,52,-1,54,56,58,60,62,64,66,68,70,72,74,76,-1,-1,78,80,82,84,86,-1,88,-1,90,-1,-1,-1,-1,-1,-1,-1,-1,-1,-1,-1,-1,-1,-1,-1,-1,-1,-1,-1,-1,-1,-1,-1,-1,-1,-1,-1,-1,-1,-1,-1,-1,-1,-1,-1,-1,-1,-1,-1],"split_conditions":[2.57E1,1.75E1,2.99E1,8.6E0,3.99E1,2.33E1,3.48E1,3.1E0,4.47E1,3E0,4.47E1,6E0,2.0977339E-1,1E-45,4.02E1,1E-45,1.793E2,1.543E2,1.18E1,1.547E2,4.8E0,1E-45,2.1378638E-1,1E-45,1E-45,1.03E1,1.86E1,1E-45,2.1464638E-1,9.2E0,6E0,1.53E2,1.85E1,1.81E1,5.8E0,1.446E2,1.37E1,2.2E1,2.2E0,1E-45,2.5E1,1.8700497E-1,5.985368E-2,3E0,3.1E0,1.72E2,1.407E2,1.147E2,2.158381E-1,3E0,2.098353E-1,9.6E0,2.1765864E-1,9.081194E-2,-2.8458597E-2,-8.76189E-2,-6.2080882E-2,-8.8612475E-2,-8.208928E-2,4.0916023E-3,-7.860541E-2,-5.728403E-2,-8.507602E-2,-2.5074348E-2,-4.9148064E-2,-5.394298E-2,1.9393018E-1,1.1354902E-1,2.1431513E-1,-2.9234476E-2,1.0974021E-1,1.6524826E-1,1.0626477E-1,4.7797676E-2,-2.0803563E-2,-5.7179905E-2,3.0857349E-2,1.7708413E-1,5.5404823E-2,2.012647E-1,1.3807735E-1,-6.360897E-2,5.171354E-3,1.04002275E-1,2.0757815E-1,-0E0,1.8476634E-1,1.9646595E-1,4.854184E-2,1.8427132E-1,2.1201882E-1],"split_indices":[12,12,12,12,10,10,12,10,10,10,10,10,0,5,12,1,8,8,12,7,10,5,0,5,5,10,10,5,0,4,12,8,4,10,10,8,12,12,10,1,10,0,0,10,10,8,7,7,0,10,0,10,0,0,0,0,0,0,0,0,0,0,0,0,0,0,0,0,0,0,0,0,0,0,0,0,0,0,0,0,0,0,0,0,0,0,0,0,0,0,0],"split_type":[0,0,0,0,0,0,0,0,0,0,0,0,0,1,0,1,0,0,0,0,0,1,0,1,1,0,0,1,0,0,0,0,0,0,0,0,0,0,0,1,0,0,0,0,0,0,0,0,0,0,0,0,0,0,0,0,0,0,0,0,0,0,0,0,0,0,0,0,0,0,0,0,0,0,0,0,0,0,0,0,0,0,0,0,0,0,0,0,0,0,0],"sum_hessian":[8.849987E3,6.8713003E3,1.9786875E3,4.9624307E3,1.9088696E3,6.350451E2,1.3436425E3,2.5195156E3,2.4429148E3,1.6929083E3,2.1596138E2,5.3055273E2,1.0449238E2,5.087278E2,8.349146E2,1.1941465E2,2.400101E3,2.2807615E3,1.6215321E2,1.237184E2,1.5691898E3,1.7524132E1,1.9843724E2,3.6813278E2,1.6241995E2,3.433961E2,1.6533171E2,3.9894507E2,4.3596954E2,3.5788826E1,8.3625824E1,2.3915093E3,8.591792E0,9.046897E2,1.3760718E3,8.511262E1,7.704059E1,3.2476997E1,9.12414E1,5.989422E2,9.702477E2,1.2539144E1,4.9849877E0,2.714024E2,9.6730385E1,1.4909267E2,1.3327292E1,2.824703E2,6.0925785E1,1.2903098E2,3.6300728E1,3.1969345E2,7.925163E1,4.8377314E0,3.0951096E1,3.3436745E1,5.0189083E1,2.152945E3,2.3856433E2,4.3079996E0,4.283792E0,2.0230045E2,7.023893E2,6.9965814E2,6.7641364E2,7.128574E1,1.3826874E1,3.5678833E1,4.136176E1,1.7891596E1,1.4585401E1,6.084762E1,3.0393785E1,2.2950598E2,3.694362E2,9.006028E2,6.964488E1,7.061377E1,2.0078862E2,8.534952E1,1.1380868E1,1.2111047E2,2.7982191E1,5.199732E0,8.127561E0,4.3515663E0,2.7811874E2,2.616142E1,1.0286956E2,2.7219284E2,4.7500584E1],"tree_param":{"num_deleted":"0","num_feature":"14","num_nodes":"91","size_leaf_vector":"1"}},{"base_weights":[-6.3278124E-4,1.0911794E0,-3.7986103E-1,2.222949E-1,1.1986691E0,1.768079E0,-5.979996E-1,9.9671644E-1,-2.3321752E-1,9.4588125E-1,1.286256E0,2.0987989E-1,2.4672137E-1,-6.2518287E-1,1.7413879E-2,1.2199291E0,5.347023E-1,2.089707E-1,-4.7030482E-1,1.1560144E0,3.3954316E-1,1.1639646E0,1.778912E-1,4.552948E-1,-6.2856513E-1,1.3111354E0,-8.694737E-2,1.7363863E-1,1.0733159E-1,9.101617E-1,-2.0258795E-1,2.150015E-2,-5.676323E-1,1.8101096E-1,9.8277813E-1,2.0228577E-1,-6.3288435E-2,1.737975E-1,8.257525E-1,1.0595838E0,-6.307696E-2,-4.9632564E-1,-6.36349E-1,6.971582E-2,1.8915485E-1,1.6262361E-1,-2.651255E-3,3.777584E-2,-8.306446E-2,-6.2136296E-2,1.11231156E-1,-8.449854E-2,-3.884732E-2,1.0067421E-1,1.7968212E-1,-4.751104E-2,7.5122744E-2,1.60458E-1,5.7074063E-2,4.966426E-2,2.0777823E-1,-7.9005234E-2,2.029762E-2,-5.7295695E-2,-8.768595E-2],"categories":[],"categories_nodes":[],"categories_segments":[],"categories_sizes":[],"default_left":[0,0,0,0,0,0,0,0,0,0,0,0,0,0,0,0,0,0,0,0,0,0,0,0,0,0,0,0,0,0,0,0,0,0,0,0,0,0,0,0,0,0,0,0,0,0,0,0,0,0,0,0,0,0,0,0,0,0,0,0,0,0,0,0,0],"id":8,"left_children":[1,3,5,7,9,11,13,15,17,19,21,-1,-1,23,25,27,29,-1,31,33,35,37,-1,39,41,43,-1,-1,-1,45,47,49,51,-1,53,-1,55,-1,57,59,-1,61,63,-1,-1,-1,-1,-1,-1,-1,-1,-1,-1,-1,-1,-1,-1,-1,-1,-1,-1,-1,-1,-1,-1],"loss_changes":[3.6034116E3,2.093418E2,3.0270757E3,8.753223E1,4.345996E1,1.8681641E0,9.813403E1,9.054512E0,6.525634E1,6.545865E1,1.4355469E-1,0E0,0E0,2.0685059E1,2.0912512E2,5.070114E-1,8.692319E0,0E0,6.640621E0,9.739258E0,6.0893414E1,1.7755432E0,0E0,1.0111029E1,5.5490723E0,3.7524567E0,0E0,0E0,0E0,5.255026E0,2.1747432E0,8.863809E0,1.3903084E0,0E0,1.442807E1,0E0,1.7073154E1,0E0,2.1956654E0,3.0588846E0,0E0,1.572673E1,4.2773438E-1,0E0,0E0,0E0,0E0,0E0,0E0,0E0,0E0,0E0,0E0,0E0,0E0,0E0,0E0,0E0,0E0,0E0,0E0,0E0,0E0,0E0,0E0],"parents":[2147483647,0,0,1,1,2,2,3,3,4,4,5,5,6,6,7,7,8,8,9,9,10,10,13,13,14,14,15,15,16,16,18,18,19,19,20,20,21,21,23,23,24,24,25,25,29,29,30,30,31,31,32,32,34,34,36,36,38,38,39,39,41,41,42,42],"right_children":[2,4,6,8,10,12,14,16,18,20,22,-1,-1,24,26,28,30,-1,32,34,36,38,-1,40,42,44,-1,-1,-1,46,48,50,52,-1,54,-1,56,-1,58,60,-1,62,64,-1,-1,-1,-1,-1,-1,-1,-1,-1,-1,-1,-1,-1,-1,-1,-1,-1,-1,-1,-1,-1,-1],"split_conditions":[5E0,4.5E1,1.28E1,8.15E1,5.9E1,7.1E0,6.11E1,6.54E1,1.79E1,1.415E2,6.19E1,2.0987989E-1,2.4672137E-1,8.39E1,8.1E0,1.636E2,1.573E2,2.089707E-1,1.003E2,2.04E1,1.89E1,3.6E0,1.778912E-1,1.468E2,6.9E0,6.19E1,-8.694737E-2,1.7363863E-1,1.0733159E-1,3.4E0,2.6E0,3.38E1,3E0,1.8101096E-1,3.5E1,2.0228577E-1,5.46E1,1.737975E-1,1.083E2,3.26E1,-6.307696E-2,5.46E1,1.057E2,6.971582E-2,1.8915485E-1,1.6262361E-1,-2.651255E-3,3.777584E-2,-8.306446E-2,-6.2136296E-2,1.11231156E-1,-8.449854E-2,-3.884732E-2,1.0067421E-1,1.7968212E-1,-4.751104E-2,7.5122744E-2,1.60458E-1,5.7074063E-2,4.966426E-2,2.0777823E-1,-7.9005234E-2,2.029762E-2,-5.7295695E-2,-8.768595E-2],"split_indices":[12,10,6,11,10,12,10,11,6,11,10,0,0,11,12,8,8,0,11,6,6,12,0,8,12,10,0,0,0,12,12,6,9,0,6,0,10,0,8,6,0,10,11,0,0,0,0,0,0,0,0,0,0,0,0,0,0,0,0,0,0,0,0,0,0],"split_type":[0,0,0,0,0,0,0,0,0,0,0,0,0,0,0,0,0,0,0,0,0,0,0,0,0,0,0,0,0,0,0,0,0,0,0,0,0,0,0,0,0,0,0,0,0,0,0,0,0,0,0,0,0,0,0,0,0,0,0,0,0,0,0,0,0],"sum_hessian":[8.701916E3,2.2430315E3,6.4588843E3,2.4715886E2,1.9958728E3,5.951022E2,5.863782E3,9.133172E1,1.5582715E2,5.1533636E2,1.4805364E3,5.639238E1,5.387098E2,5.6157837E3,2.4799829E2,6.0928055E1,3.0403662E1,1.8216692E1,1.3761046E2,3.8229523E2,1.330411E2,7.2163284E1,1.4083732E3,1.726393E1,5.59852E3,8.267849E1,1.653198E2,5.4713375E1,6.2146792E0,2.0096651E1,1.0307011E1,2.2736567E1,1.14873886E2,1.975548E2,1.8474043E2,3.4621902E1,9.8419205E1,5.467744E1,1.7485842E1,1.0364233E1,6.899697E0,3.134393E2,5.2850806E3,6.375894E0,7.630259E1,1.5479651E1,4.6169996E0,4.7386093E0,5.568401E0,1.43114E1,8.425166E0,9.825429E1,1.6619602E1,1.04808105E2,7.993232E1,6.748595E1,3.0933262E1,8.9832535E0,8.502588E0,4.470794E0,5.893439E0,2.7986612E2,3.357318E1,1.3777464E1,5.271303E3],"tree_param":{"num_deleted":"0","num_feature":"14","num_nodes":"65","size_leaf_vector":"1"}},{"base_weights":[-1.2922079E-3,4.3733898E-1,-2.9668835E-1,-6.364684E-1,8.3594215E-1,-5.2723043E-2,-4.9140632E-1,-9.007788E-2,-8.794366E-2,-2.6404181E-2,9.533439E-1,2.8443635E-1,-4.1346174E-1,-3.8143343E-1,-6.1147916E-1,-5.7453316E-1,1.1423503E0,-4.3620002E-1,3.6472258E-1,1.228849E0,7.238666E-1,4.2374396E-1,3.8886953E-2,-1.6934289E-1,-8.759086E-2,-5.088647E-1,-2.0104176E-1,-5.762882E-1,-8.6889945E-2,-8.469731E-2,-5.097563E-2,1.9882369E-1,9.406015E-2,-6.006256E-1,-2.4116133E-1,-2.6910454E-1,8.3021796E-1,7.828051E-1,1.4044745E0,9.7959465E-1,3.3629537E-1,-5.422956E-1,5.553361E-1,5.177319E-1,-4.2184326E-1,-7.060489E-2,-3.7853965E-1,-2.7308163E-1,-6.0828245E-1,6.108484E-2,-4.0180385E-1,-4.885716E-1,-6.0853404E-1,-6.468417E-2,-8.740319E-2,-6.9512627E-3,-6.300088E-2,-8.599464E-2,-7.265688E-3,-8.26626E-2,1.3692766E-1,1.3745084E-1,-4.1636165E-2,1.7262268E-1,2.0599149E-1,1.0716553E-1,1.5784568E-1,-4.07459E-3,9.612518E-2,-8.500604E-2,-4.6137482E-2,8.174484E-2,2.8650492E-2,-8.4993646E-2,8.7437E-2,8.867552E-2,-8.22029E-2,-6.778176E-2,-3.5647945E-3,-7.333082E-2,4.4360116E-2,-2.001514E-2,-7.765917E-2,-7.078726E-2,-8.685388E-2,1.18639044E-1,-2.4869105E-2,-1.0592069E-2,-7.131406E-2,-8.147894E-2,-4.975256E-2,-8.443819E-2,-3.736576E-2],"categories":[0,0,1,0,0,1,3,0,1,3,1,2,1,2,0,1,3,1,0,1,3],"categories_nodes":[9,11,13,15,25,27,37,39,40,42,44,46,50],"categories_segments":[0,1,2,3,4,7,10,11,12,13,14,17,18],"categories_sizes":[1,1,1,1,3,3,1,1,1,1,3,1,3],"default_left":[0,0,0,0,0,0,0,0,0,1,0,1,0,1,0,1,0,0,0,0,0,0,0,0,0,1,0,1,0,0,0,0,0,0,0,0,0,1,0,1,1,0,1,0,1,0,1,0,0,0,1,0,0,0,0,0,0,0,0,0,0,0,0,0,0,0,0,0,0,0,0,0,0,0,0,0,0,0,0,0,0,0,0,0,0,0,0,0,0,0,0,0,0],"id":9,"left_children":[1,3,5,7,9,11,13,-1,15,17,19,21,23,25,27,29,31,33,35,37,39,41,43,45,-1,47,49,51,-1,-1,-1,-1,-1,53,55,57,59,61,63,65,67,69,71,73,75,77,79,81,83,85,87,89,91,-1,-1,-1,-1,-1,-1,-1,-1,-1,-1,-1,-1,-1,-1,-1,-1,-1,-1,-1,-1,-1,-1,-1,-1,-1,-1,-1,-1,-1,-1,-1,-1,-1,-1,-1,-1,-1,-1,-1,-1],"loss_changes":[1.1284128E3,1.5003899E3,2.4718924E2,9.195374E0,2.588412E2,2.8110986E2,3.805127E1,0E0,1.858147E1,4.9261044E1,1.4169116E2,4.083808E1,6.0620102E1,3.467827E1,7.1118164E-1,2.3314E-2,6.0464287E-1,4.7030544E0,4.6527084E1,7.93501E1,1.21570435E2,9.703807E1,9.567608E1,1.0988275E1,0E0,2.0637573E1,3.302359E1,1.2159729E0,0E0,0E0,0E0,0E0,0E0,1.5844345E-1,2.8427367E0,5.1036706E0,2.1682419E1,6.7988525E1,8.998169E0,2.4293518E1,6.4836655E1,1.2768745E0,8.8463745E0,2.8535118E1,4.1476128E1,6.821969E0,1.8542976E1,9.729967E0,1.1019592E0,5.2811E1,1.3360455E1,1.6583748E0,4.593506E-1,0E0,0E0,0E0,0E0,0E0,0E0,0E0,0E0,0E0,0E0,0E0,0E0,0E0,0E0,0E0,0E0,0E0,0E0,0E0,0E0,0E0,0E0,0E0,0E0,0E0,0E0,0E0,0E0,0E0,0E0,0E0,0E0,0E0,0E0,0E0,0E0,0E0,0E0,0E0,0E0],"parents":[2147483647,0,0,1,1,2,2,3,3,4,4,5,5,6,6,8,8,9,9,10,10,11,11,12,12,13,13,14,14,15,15,16,16,17,17,18,18,19,19,20,20,21,21,22,22,23,23,25,25,26,26,27,27,33,33,34,34,35,35,36,36,37,37,38,38,39,39,40,40,41,41,42,42,43,43,44,44,45,45,46,46,47,47,48,48,49,49,50,50,51,51,52,52],"right_children":[2,4,6,8,10,12,14,-1,16,18,20,22,24,26,28,30,32,34,36,38,40,42,44,46,-1,48,50,52,-1,-1,-1,-1,-1,54,56,58,60,62,64,66,68,70,72,74,76,78,80,82,84,86,88,90,92,-1,-1,-1,-1,-1,-1,-1,-1,-1,-1,-1,-1,-1,-1,-1,-1,-1,-1,-1,-1,-1,-1,-1,-1,-1,-1,-1,-1,-1,-1,-1,-1,-1,-1,-1,-1,-1,-1,-1,-1],"split_conditions":[3.51E1,1.33E1,1.55E2,1.28E1,1.062E2,4.8E1,4.8E1,-9.007788E-2,1.364E2,1E-45,2.8E1,1E-45,5.52E1,1E-45,5.29E1,1E-45,2E1,9.87E1,9.15E1,1.284E2,1.58E2,1.077E2,1.25E2,1.387E2,-8.759086E-2,1E-45,1.709E2,1E-45,-8.6889945E-2,-8.469731E-2,-5.097563E-2,1.9882369E-1,9.406015E-2,1.03E1,1.83E1,8E1,1.89E1,1E-45,1.477E2,1E-45,1E-45,1.035E2,1E-45,8.5E1,1E-45,9.26E1,1E-45,1.807E2,1.598E2,5E1,1E-45,2.2E1,3.47E1,-6.468417E-2,-8.740319E-2,-6.9512627E-3,-6.300088E-2,-8.599464E-2,-7.265688E-3,-8.26626E-2,1.3692766E-1,1.3745084E-1,-4.1636165E-2,1.7262268E-1,2.0599149E-1,1.0716553E-1,1.5784568E-1,-4.07459E-3,9.612518E-2,-8.500604E-2,-4.6137482E-2,8.174484E-2,2.8650492E-2,-8.4993646E-2,8.7437E-2,8.867552E-2,-8.22029E-2,-6.778176E-2,-3.5647945E-3,-7.333082E-2,4.4360116E-2,-2.001514E-2,-7.765917E-2,-7.078726E-2,-8.685388E-2,1.18639044E-1,-2.4869105E-2,-1.0592069E-2,-7.131406E-2,-8.147894E-2,-4.975256E-2,-8.443819E-2,-3.736576E-2],"split_indices":[6,6,8,6,8,6,6,0,8,1,6,1,6,1,6,1,4,8,8,8,8,8,8,8,0,2,8,2,0,0,0,0,0,4,4,8,6,1,8,1,1,8,2,8,2,8,1,8,8,0,2,4,4,0,0,0,0,0,0,0,0,0,0,0,0,0,0,0,0,0,0,0,0,0,0,0,0,0,0,0,0,0,0,0,0,0,0,0,0,0,0,0,0],"split_type":[0,0,0,0,0,0,0,0,0,1,0,1,0,1,0,1,0,0,0,0,0,0,0,0,0,1,0,1,0,0,0,0,0,0,0,0,0,1,0,1,1,0,1,0,1,0,1,0,0,0,1,0,0,0,0,0,0,0,0,0,0,0,0,0,0,0,0,0,0,0,0,0,0,0,0,0,0,0,0,0,0,0,0,0,0,0,0,0,0,0,0,0,0],"sum_hessian":[8.707874E3,3.5041704E3,5.2037036E3,9.485169E2,2.5556536E3,2.3101565E3,2.8935474E3,9.1856854E2,2.994838E1,3.0625003E2,2.2494036E3,1.1941064E3,1.1160499E3,1.5116366E3,1.3819108E3,2.1688925E1,8.259455E0,1.4957445E2,1.5667558E2,1.02104584E3,1.2283577E3,7.6152185E2,4.325847E2,5.329849E2,5.8306494E2,8.851539E2,6.264827E2,5.0113345E2,8.807773E2,1.7027857E1,4.6610675E0,4.2362833E0,4.0231714E0,8.044016E1,6.913429E1,6.640289E1,9.027269E1,2.8934436E2,7.317015E2,7.394976E2,4.8886005E2,9.1059784E1,6.7046204E2,2.121314E2,2.2045328E2,3.627018E2,1.7028313E2,2.6324405E2,6.219098E2,2.71793E2,3.5468973E2,1.37367E2,3.6376645E2,1.855071E1,6.1889454E1,3.720265E1,3.1931643E1,2.466909E1,4.1733803E1,9.128067E0,8.114462E1,2.4146893E2,4.787542E1,2.7990115E2,4.518003E2,3.367047E2,4.027929E2,2.4327322E2,2.4558682E2,6.591043E1,2.5149353E1,6.032757E2,6.718637E1,1.9628214E1,1.9250317E2,3.0886421E1,1.8956686E2,3.417024E1,3.2853156E2,1.3974266E2,3.054047E1,1.8360098E2,7.964307E1,1.2298195E2,4.9892786E2,6.2746082E1,2.0904692E2,9.374317E1,2.6094653E2,7.457953E1,6.278747E1,3.5816144E2,5.60502E0],"tree_param":{"num_deleted":"0","num_feature":"14","num_nodes":"93","size_leaf_vector":"1"}},{"base_weights":[4.782262E-4,-4.7514632E-1,2.4082589E-1,-5.7110727E-1,-1.162606E-1,-8.787661E-2,3.8308132E-1,-6.165491E-1,-4.691173E-1,-5.91634E-1,4.0126115E-1,5.324892E-1,-4.2775628E-1,-8.6432524E-2,-5.702727E-1,-5.5943304E-1,-1.6311994E-2,-4.2058998E-1,-8.747639E-2,4.5937453E-3,6.57534E-1,-3.7003994E-1,6.3068825E-1,-3.927801E-2,-5.7619053E-1,-6.034763E-1,-4.5236173E-1,-6.1270463E-1,-3.8264045E-1,-3.7277544E-1,2.5397682E-1,-8.657968E-2,6.4350285E-2,7.0328337E-1,-8.665997E-2,3.46483E-1,9.530002E-1,-6.0783166E-1,-9.818611E-2,6.8858016E-1,-8.8618994E-2,2.3948163E-1,-6.048309E-1,1.431074E-1,-5.959092E-1,-8.641309E-2,-7.6367855E-2,-2.1723738E-2,-7.153194E-2,-7.3101364E-2,-8.6287685E-2,-7.663146E-2,-1.6872149E-2,2.3455085E-2,-8.584211E-2,-5.7342514E-2,7.058512E-2,-8.052097E-2,5.807626E-2,1.5011151E-1,6.2588796E-2,5.9552487E-2,-8.115101E-2,9.514754E-2,1.5844668E-1,-8.765282E-2,-6.36523E-2,-5.0125334E-2,4.830378E-2,1.0137426E-1,3.779318E-2,8.472398E-2,3.2331306E-4,-2.6643924E-2,-8.6858034E-2,-4.8288446E-2,-8.734077E-2],"categories":[0,1,2,0,1,2,0,1,2,0,1,2,0,1,2],"categories_nodes":[9,19,26,27,29],"categories_segments":[0,3,6,9,12],"categories_sizes":[3,3,3,3,3],"default_left":[0,0,0,0,0,0,0,0,0,1,0,0,0,0,0,0,0,0,0,1,0,0,0,0,0,0,1,1,0,1,0,0,0,0,0,0,0,0,0,0,0,0,0,0,0,0,0,0,0,0,0,0,0,0,0,0,0,0,0,0,0,0,0,0,0,0,0,0,0,0,0,0,0,0,0,0,0],"id":10,"left_children":[1,3,5,7,9,-1,11,13,15,17,19,21,23,-1,25,27,29,31,-1,33,35,37,39,41,43,45,47,49,51,53,55,-1,57,59,-1,61,63,65,67,69,-1,71,73,-1,75,-1,-1,-1,-1,-1,-1,-1,-1,-1,-1,-1,-1,-1,-1,-1,-1,-1,-1,-1,-1,-1,-1,-1,-1,-1,-1,-1,-1,-1,-1,-1,-1],"loss_changes":[9.975584E2,1.0082178E2,7.250751E2,1.05130005E1,1.5236577E2,0E0,6.046466E2,5.895996E-1,2.9206848E1,2.2285156E0,3.0117092E1,3.736029E2,4.4749374E1,0E0,1.0574951E0,5.4469757E0,1.1569192E1,6.858844E0,0E0,5.206565E1,1.632222E1,2.669009E1,2.8062817E2,3.404587E1,1.8214691E1,5.6800842E-2,1.3607073E0,2.9899597E-1,6.2516956E0,7.1304755E0,1.1951435E1,0E0,4.9310665E0,5.0565968E0,0E0,7.2698565E0,4.2660522E0,7.2289276E-1,2.3205189E1,7.168628E1,0E0,1.2863827E1,6.6542053E-1,0E0,5.079056E0,0E0,0E0,0E0,0E0,0E0,0E0,0E0,0E0,0E0,0E0,0E0,0E0,0E0,0E0,0E0,0E0,0E0,0E0,0E0,0E0,0E0,0E0,0E0,0E0,0E0,0E0,0E0,0E0,0E0,0E0,0E0,0E0],"parents":[2147483647,0,0,1,1,2,2,3,3,4,4,6,6,7,7,8,8,9,9,10,10,11,11,12,12,14,14,15,15,16,16,17,17,19,19,20,20,21,21,22,22,23,23,24,24,25,25,26,26,27,27,28,28,29,29,30,30,32,32,33,33,35,35,36,36,37,37,38,38,39,39,41,41,42,42,44,44],"right_children":[2,4,6,8,10,-1,12,14,16,18,20,22,24,-1,26,28,30,32,-1,34,36,38,40,42,44,46,48,50,52,54,56,-1,58,60,-1,62,64,66,68,70,-1,72,74,-1,76,-1,-1,-1,-1,-1,-1,-1,-1,-1,-1,-1,-1,-1,-1,-1,-1,-1,-1,-1,-1,-1,-1,-1,-1,-1,-1,-1,-1,-1,-1,-1,-1],"split_conditions":[3E0,1.55E2,2.8E1,4.33E1,3.51E1,-8.787661E-2,9E0,3.54E1,1.377E2,1E-45,2E0,1.039E2,1E1,-8.6432524E-2,1.396E2,2E0,2E0,3.04E1,-8.747639E-2,1E-45,1.527E2,9.44E1,6.5E1,5.43E1,3.24E1,2E0,1E-45,1E-45,1.207E2,1E-45,1.159E2,-8.657968E-2,1E0,1.67E1,-8.665997E-2,6.46E1,4.66E1,9.17E1,5E0,5.49E1,-8.8618994E-2,1.504E2,5.52E1,1.431074E-1,4.16E1,-8.641309E-2,-7.6367855E-2,-2.1723738E-2,-7.153194E-2,-7.3101364E-2,-8.6287685E-2,-7.663146E-2,-1.6872149E-2,2.3455085E-2,-8.584211E-2,-5.7342514E-2,7.058512E-2,-8.052097E-2,5.807626E-2,1.5011151E-1,6.2588796E-2,5.9552487E-2,-8.115101E-2,9.514754E-2,1.5844668E-1,-8.765282E-2,-6.36523E-2,-5.0125334E-2,4.830378E-2,1.0137426E-1,3.779318E-2,8.472398E-2,3.2331306E-4,-2.6643924E-2,-8.6858034E-2,-4.8288446E-2,-8.734077E-2],"split_indices":[9,8,6,6,6,0,9,6,8,3,9,7,9,0,8,9,9,6,0,3,7,7,6,6,6,9,3,3,8,3,7,0,9,4,0,6,6,7,9,6,0,7,6,0,6,0,0,0,0,0,0,0,0,0,0,0,0,0,0,0,0,0,0,0,0,0,0,0,0,0,0,0,0,0,0,0,0],"split_type":[0,0,0,0,0,0,0,0,0,1,0,0,0,0,0,0,0,0,0,1,0,0,0,0,0,0,1,1,0,1,0,0,0,0,0,0,0,0,0,0,0,0,0,0,0,0,0,0,0,0,0,0,0,0,0,0,0,0,0,0,0,0,0,0,0,0,0,0,0,0,0,0,0,0,0,0,0],"sum_hessian":[8.725385E3,2.9288293E3,5.7965557E3,2.3105842E3,6.1824506E2,8.070621E2,4.9894937E3,1.5962665E3,7.1431775E2,3.222441E2,2.9600092E2,4.2133584E3,7.761355E2,1.2786036E3,3.176628E2,5.9535583E2,1.1896195E2,6.69441E1,2.553E2,1.1645258E2,1.7954834E2,4.132614E2,3.8000967E3,2.1483078E2,5.6130475E2,2.4587607E2,7.178675E1,4.5631073E2,1.3904509E2,5.1277313E1,6.768464E1,4.6777504E1,2.0166595E1,5.5402176E1,6.1050404E1,8.810151E1,9.144684E1,2.2000919E2,1.9325221E2,3.6352302E3,1.6486658E2,1.4406322E2,7.076757E1,6.408729E0,5.54896E2,1.5967267E2,8.6203415E1,1.3774737E1,5.8012012E1,7.024136E1,3.8606937E2,8.286406E1,5.6181026E1,1.6199224E1,3.5078087E1,1.8710934E1,4.89737E1,7.0007434E0,1.3165852E1,2.0900303E1,3.4501873E1,8.098618E1,7.115325E0,4.047285E1,5.0973984E1,1.819167E2,3.8092487E1,1.2149832E2,7.175389E1,3.2591658E3,3.760645E2,5.5332367E1,8.873085E1,4.5718465E0,6.6195724E1,7.611362E1,4.7878238E2],"tree_param":{"num_deleted":"0","num_feature":"14","num_nodes":"77","size_leaf_vector":"1"}},{"base_weights":[-9.5375854E-4,-3.126436E-1,9.7024363E-1,-4.1520575E-1,8.1696534E-1,-9.642514E-2,1.1125528E0,-5.595983E-1,-2.5189314E-2,1.0014156E0,-8.5521415E-2,7.4539393E-1,1.2711703E0,-6.133323E-1,-3.9919317E-1,-3.361872E-1,1.2258937E0,4.539044E-1,1.4250238E0,4.349919E-1,1.3053192E0,1.0940897E0,1.3127878E0,-6.205113E-1,-3.853716E-1,-4.7158474E-1,5.1704335E-1,-4.1101104E-1,1.3623097E0,-8.536932E-2,1.3033612E0,1.8232783E0,-3.3177924E-1,1.24194E0,2.0139904E-1,7.1413234E-2,1.7883047E-1,1.3411118E0,2.7786778E-2,6.221203E-1,1.2384932E0,1.07675515E-1,1.8101636E-1,-8.611102E-2,-7.6422386E-2,5.401728E-2,-7.4838765E-2,-7.286261E-2,1.5605415E-2,2.3226225E-1,-5.4036368E-2,-6.34062E-2,2.73721E-1,2.6595682E-1,-3.123679E-2,-8.865498E-3,1.8278368E-1,2.8124478E-1,2.2488153E-1,-7.172257E-2,2.0359878E-1,1.1773426E-1,1.9440766E-1,-4.844892E-2,1.1641351E-1,1.9590655E-1,1.5647295E-1,4.487761E-2,1.662168E-1,1.369253E-1,1.8043488E-1],"categories":[2,1,2,1,0,1],"categories_nodes":[17,24,28,37],"categories_segments":[0,1,3,4],"categories_sizes":[1,2,1,2],"default_left":[0,0,0,0,0,0,0,0,0,0,0,0,0,0,0,0,0,1,0,0,0,0,0,0,1,0,0,0,1,0,0,0,0,0,0,0,0,1,0,0,0,0,0,0,0,0,0,0,0,0,0,0,0,0,0,0,0,0,0,0,0,0,0,0,0,0,0,0,0,0,0],"id":11,"left_children":[1,3,5,7,9,-1,11,13,15,17,-1,19,21,23,25,27,29,31,33,35,37,39,41,43,45,47,49,51,53,-1,55,57,59,61,-1,63,-1,65,-1,67,69,-1,-1,-1,-1,-1,-1,-1,-1,-1,-1,-1,-1,-1,-1,-1,-1,-1,-1,-1,-1,-1,-1,-1,-1,-1,-1,-1,-1,-1,-1],"loss_changes":[2.6317178E3,7.6268396E2,5.0259814E2,3.397881E2,1.4570898E2,0E0,1.1278027E2,3.7785156E1,6.3479224E2,1.122782E2,0E0,1.0193414E2,9.144775E0,5.2282715E0,7.353752E1,1.6633582E2,4.6910156E1,2.2932562E2,8.0859375E-1,1.1911076E2,8.073517E0,1.736444E1,5.045166E-1,7.96875E-1,1.2701665E1,3.463304E1,8.6869354E1,1.4916855E2,5.028547E1,0E0,1.0429138E1,1.2983093E0,4.683246E1,2.5860748E0,0E0,8.791144E1,0E0,2.4253235E0,0E0,1.0561159E1,2.7225342E0,0E0,0E0,0E0,0E0,0E0,0E0,0E0,0E0,0E0,0E0,0E0,0E0,0E0,0E0,0E0,0E0,0E0,0E0,0E0,0E0,0E0,0E0,0E0,0E0,0E0,0E0,0E0,0E0,0E0,0E0],"parents":[2147483647,0,0,1,1,2,2,3,3,4,4,6,6,7,7,8,8,9,9,11,11,12,12,13,13,14,14,15,15,16,16,17,17,18,18,19,19,20,20,21,21,22,22,23,23,24,24,25,25,26,26,27,27,28,28,30,30,31,31,32,32,33,33,35,35,37,37,39,39,40,40],"right_children":[2,4,6,8,10,-1,12,14,16,18,-1,20,22,24,26,28,30,32,34,36,38,40,42,44,46,48,50,52,54,-1,56,58,60,62,-1,64,-1,66,-1,68,70,-1,-1,-1,-1,-1,-1,-1,-1,-1,-1,-1,-1,-1,-1,-1,-1,-1,-1,-1,-1,-1,-1,-1,-1,-1,-1,-1,-1,-1,-1],"split_conditions":[2.57E1,2.58E2,3.21E1,4.311E2,1.81E1,-9.642514E-2,2.99E1,3.107E2,3.99E1,3.17E2,-8.5521415E-2,1.82E2,3.24E1,2.29E2,5.49E1,1.76E2,3.51E1,1E-45,3.5E2,2.33E1,9.3E0,4.28E1,2.604E2,1.83E1,1E-45,2E2,7.2E1,6.5E1,1E-45,-8.536932E-2,8E0,1.73E1,2.09E1,1.52E1,2.0139904E-1,6.329E2,1.7883047E-1,1E-45,2.7786778E-2,1.78E2,4.8E1,1.07675515E-1,1.8101636E-1,-8.611102E-2,-7.6422386E-2,5.401728E-2,-7.4838765E-2,-7.286261E-2,1.5605415E-2,2.3226225E-1,-5.4036368E-2,-6.34062E-2,2.73721E-1,2.6595682E-1,-3.123679E-2,-8.865498E-3,1.8278368E-1,2.8124478E-1,2.2488153E-1,-7.172257E-2,2.0359878E-1,1.1773426E-1,1.9440766E-1,-4.844892E-2,1.1641351E-1,1.9590655E-1,1.5647295E-1,4.487761E-2,1.662168E-1,1.369253E-1,1.8043488E-1],"split_indices":[12,13,6,11,10,0,12,11,10,13,0,13,12,13,6,13,6,2,13,10,10,6,11,12,2,13,13,6,2,0,12,12,12,12,0,11,0,2,0,13,6,0,0,0,0,0,0,0,0,0,0,0,0,0,0,0,0,0,0,0,0,0,0,0,0,0,0,0,0,0,0],"split_type":[0,0,0,0,0,0,0,0,0,0,0,0,0,0,0,0,0,1,0,0,0,0,0,0,1,0,0,0,1,0,0,0,0,0,0,0,0,1,0,0,0,0,0,0,0,0,0,0,0,0,0,0,0,0,0,0,0,0,0,0,0,0,0,0,0,0,0,0,0,0,0],"sum_hessian":[8.692799E3,6.581106E3,2.1116926E3,6.0336587E3,5.474474E2,1.6557643E2,1.9461161E3,4.4031733E3,1.6304852E3,4.8538367E2,6.206371E1,5.881088E2,1.3580073E3,3.2969639E3,1.1062094E3,1.3062089E3,3.2427643E2,2.1225383E2,2.7312985E2,3.7902005E2,2.0908878E2,2.6139786E2,1.0966095E3,3.19524E3,1.01723915E2,1.0254897E3,8.07197E1,1.2515071E3,5.470167E1,1.2888417E1,3.1138803E2,7.7141945E1,1.351119E2,4.99993E1,2.2313054E2,2.6719434E2,1.11825714E2,2.0237329E2,6.715485E0,6.197283E1,1.9942503E2,4.896142E0,1.0917133E3,2.966801E3,2.2843892E2,1.7017588E1,8.470633E1,9.336288E2,9.186093E1,3.512359E1,4.559611E1,1.2266406E3,2.4866508E1,4.0205627E1,1.4496042E1,5.3745527E0,3.0601346E2,3.3260098E1,4.388185E1,1.2269824E2,1.2413645E1,1.6330206E1,3.366909E1,1.7289429E2,9.430004E1,1.4216107E2,6.021221E1,4.1747124E1,2.0225708E1,4.7394764E1,1.5203027E2],"tree_param":{"num_deleted":"0","num_feature":"14","num_nodes":"71","size_leaf_vector":"1"}},{"base_weights":[-3.5558285E-3,9.5124465E-1,-3.645878E-1,1.0491661E0,6.5360916E-1,1.4158318E0,-5.815922E-1,1.5221399E-1,9.700124E-1,7.873794E-1,-1.398561E-1,1.7446181E-1,1.9683744E-1,-1.2778692E-1,-6.1622405E-1,8.7434745E-1,1.1320244E0,1.618906E-1,6.747276E-1,1.7057411E-1,-3.447176E-1,3.570473E-1,-4.2042813E-1,-5.095177E-1,-8.550289E-2,1.5469314E-1,5.5916274E-1,1.567432E-1,9.302023E-2,8.6393344E-1,3.4041545E-1,-5.168071E-1,-1.8306515E-1,5.330491E-1,1.0664755E-1,-1.9815764E-1,-6.015987E-1,-3.0413913E-2,-5.721964E-1,1.035003E-1,3.214905E-2,9.707488E-2,1.4105043E-1,-2.1143166E-2,6.201704E-2,-3.86769E-2,-8.0842935E-2,-2.4529651E-3,-8.2768455E-2,9.520274E-2,3.9120723E-2,-8.433477E-2,2.9648613E-2,-4.3508325E-2,3.708102E-2,-6.3218854E-2,-8.471956E-2,-3.8962256E-2,5.3765826E-2,-6.513827E-2,-8.299637E-2],"categories":[],"categories_nodes":[],"categories_segments":[],"categories_sizes":[],"default_left":[0,0,0,0,0,0,0,0,0,0,0,0,0,0,0,0,0,0,0,0,0,0,0,0,0,0,0,0,0,0,0,0,0,0,0,0,0,0,0,0,0,0,0,0,0,0,0,0,0,0,0,0,0,0,0,0,0,0,0,0,0],"id":12,"left_children":[1,3,5,7,9,11,13,-1,15,17,19,-1,-1,21,23,25,27,-1,29,-1,31,33,35,37,-1,-1,39,-1,-1,41,43,45,47,49,51,53,55,57,59,-1,-1,-1,-1,-1,-1,-1,-1,-1,-1,-1,-1,-1,-1,-1,-1,-1,-1,-1,-1,-1,-1],"loss_changes":[2.9143271E3,6.717041E1,2.370628E3,7.127075E0,6.1197388E1,2.89917E-1,8.587463E1,0E0,1.0708618E1,2.1066498E1,2.377366E1,0E0,0E0,5.5205402E1,2.3848877E0,3.586322E1,3.039856E-1,0E0,2.4044373E1,0E0,1.9558964E0,6.399538E0,9.672508E0,6.6283836E0,0E0,0E0,1.2724243E1,0E0,0E0,5.7763824E0,7.6315746E0,4.5826626E-1,2.6407332E0,3.2388859E0,4.8412642E0,6.0983458E0,6.648636E-2,2.851699E0,3.9915466E-1,0E0,0E0,0E0,0E0,0E0,0E0,0E0,0E0,0E0,0E0,0E0,0E0,0E0,0E0,0E0,0E0,0E0,0E0,0E0,0E0,0E0,0E0],"parents":[2147483647,0,0,1,1,2,2,3,3,4,4,5,5,6,6,8,8,9,9,10,10,13,13,14,14,15,15,16,16,18,18,20,20,21,21,22,22,23,23,26,26,29,29,30,30,31,31,32,32,33,33,34,34,35,35,36,36,37,37,38,38],"right_children":[2,4,6,8,10,12,14,-1,16,18,20,-1,-1,22,24,26,28,-1,30,-1,32,34,36,38,-1,-1,40,-1,-1,42,44,46,48,50,52,54,56,58,60,-1,-1,-1,-1,-1,-1,-1,-1,-1,-1,-1,-1,-1,-1,-1,-1,-1,-1,-1,-1,-1,-1],"split_conditions":[5E0,3.1E0,1.28E1,1.7E0,1.252E2,7.1E0,6.9E0,1.5221399E-1,3.5E1,1.89E1,1.79E1,1.7446181E-1,1.9683744E-1,1.026E2,8.1E0,1.89E1,1.364E2,1.618906E-1,1.008E2,1.7057411E-1,3.3E1,6E0,1.22E2,9.17E1,-8.550289E-2,1.5469314E-1,1.06E2,1.567432E-1,9.302023E-2,3.6E1,2.59E1,2.7E1,1.559E2,9.22E1,2.55E1,4.63E1,1.256E2,4.17E1,1.083E2,1.035003E-1,3.214905E-2,9.707488E-2,1.4105043E-1,-2.1143166E-2,6.201704E-2,-3.86769E-2,-8.0842935E-2,-2.4529651E-3,-8.2768455E-2,9.520274E-2,3.9120723E-2,-8.433477E-2,2.9648613E-2,-4.3508325E-2,3.708102E-2,-6.3218854E-2,-8.471956E-2,-3.8962256E-2,5.3765826E-2,-6.513827E-2,-8.299637E-2],"split_indices":[12,12,6,12,7,12,12,0,6,6,6,0,0,7,12,6,7,0,7,0,6,12,7,7,0,0,7,0,0,6,6,0,7,7,6,6,7,6,7,0,0,0,0,0,0,0,0,0,0,0,0,0,0,0,0,0,0,0,0,0,0],"split_type":[0,0,0,0,0,0,0,0,0,0,0,0,0,0,0,0,0,0,0,0,0,0,0,0,0,0,0,0,0,0,0,0,0,0,0,0,0,0,0,0,0,0,0,0,0,0,0,0,0,0,0,0,0,0,0,0,0,0,0,0,0],"sum_hessian":[8.453333E3,2.319115E3,6.1342183E3,1.7438893E3,5.7522577E2,6.66092E2,5.468126E3,1.01406104E3,7.2982825E2,4.9228503E2,8.294075E1,6.11435E1,6.049485E2,3.879677E2,5.080158E3,4.6118884E2,2.686394E2,1.0944917E2,3.8283585E2,1.0353367E1,7.258739E1,1.4593576E2,2.4203195E2,2.212892E2,4.858869E3,2.5670987E2,2.0447897E2,2.6403415E2,4.6052504E0,2.4385506E2,1.389808E2,3.4468605E1,3.8118782E1,8.5250565E1,6.068519E1,1.09290764E2,1.327412E2,2.5765743E1,1.9552347E2,1.2797733E2,7.650164E1,1.2414546E2,1.1970959E2,2.5212362E1,1.1376844E2,8.66473E0,2.5803875E1,2.7789799E1,1.0328982E1,5.141369E1,3.3836876E1,7.5927076E0,5.309248E1,8.749268E1,2.1798075E1,1.355185E1,1.1918935E2,1.6271528E1,9.494215E0,4.854546E1,1.4697801E2],"tree_param":{"num_deleted":"0","num_feature":"14","num_nodes":"61","size_leaf_vector":"1"}},{"base_weights":[3.2552902E-4,3.399964E-1,-4.9494144E-1,5.887469E-1,-5.843611E-1,-1.8889529E-1,-5.540193E-1,7.0607746E-1,-5.0609255E-1,-1.17660746E-1,-6.208036E-1,-3.75089E-1,4.0512243E-1,-4.4135344E-1,-5.9995663E-1,-4.5573115E-1,7.9333144E-1,1.403322E-1,-6.1124945E-1,-5.677691E-1,3.0341604E-1,-4.9154094E-1,-8.585337E-2,-8.373155E-2,-5.9059787E-1,7.638967E-1,-2.6968235E-1,-2.5312886E-1,-5.8985347E-1,-5.635082E-1,-8.446021E-2,-5.535115E-1,5.1832497E-2,-3.0785483E-1,8.6815995E-1,1.0620596E0,-8.597626E-2,2.8698528E-2,-6.225985E-1,-8.449481E-2,-4.0200498E-2,-8.442423E-2,4.835753E-1,-8.375717E-2,8.642755E-3,5.186999E-1,-3.517937E-1,5.602599E-3,-6.01449E-1,9.2331105E-1,9.3113504E-2,-5.824691E-1,1.7397706E-1,-4.555986E-1,1.9827269E-1,-6.031696E-1,-0E0,-4.9674273E-1,-8.5829735E-2,-8.624319E-2,-5.3496256E-2,3.530746E-2,-5.510377E-2,-7.413796E-2,8.914916E-2,6.1633233E-2,1.3770986E-1,1.6439939E-1,6.0063727E-2,-8.67838E-2,-2.4885636E-2,2.4633627E-2,1.6418047E-1,1.4348742E-2,1.19860396E-1,8.255369E-5,-6.584184E-2,-5.8201734E-2,-8.528043E-2,-3.373368E-2,1.3997193E-1,1.6078146E-1,-4.761541E-2,-4.7484063E-2,-8.444662E-2,1.0642988E-1,-6.0242414E-2,-3.7545167E-2,-8.303075E-2,6.695811E-2,-5.1457696E-2,-6.972451E-2,-8.6269826E-2,8.254761E-2,-5.993491E-2,7.520973E-2,-7.330386E-2],"categories":[],"categories_nodes":[],"categories_segments":[],"categories_sizes":[],"default_left":[0,0,0,0,0,0,0,0,0,0,0,0,0,0,0,0,0,0,0,0,0,0,0,0,0,0,0,0,0,0,0,0,0,0,0,0,0,0,0,0,0,0,0,0,0,0,0,0,0,0,0,0,0,0,0,0,0,0,0,0,0,0,0,0,0,0,0,0,0,0,0,0,0,0,0,0,0,0,0,0,0,0,0,0,0,0,0,0,0,0,0,0,0,0,0,0,0],"id":13,"left_children":[1,3,5,7,9,11,13,15,17,19,21,23,25,27,29,31,33,35,37,39,41,43,-1,45,47,49,51,53,55,57,-1,59,61,63,65,67,-1,-1,69,-1,-1,-1,71,-1,-1,73,75,-1,77,79,81,83,85,87,89,91,93,95,-1,-1,-1,-1,-1,-1,-1,-1,-1,-1,-1,-1,-1,-1,-1,-1,-1,-1,-1,-1,-1,-1,-1,-1,-1,-1,-1,-1,-1,-1,-1,-1,-1,-1,-1,-1,-1,-1,-1],"loss_changes":[1.4392323E3,1.1670706E3,6.284265E1,5.139131E2,1.8237701E1,6.2467506E1,1.4913391E1,3.663894E2,2.639624E1,1.5019119E1,1.4758301E-1,2.6933098E1,3.277046E1,2.3564926E1,7.8564453E-1,1.2573845E1,2.7704102E2,3.8851295E1,3.1868515E0,3.5281754E-1,6.9195013E0,1.5770946E0,0E0,2.9715046E1,1.7263641E0,9.34528E0,6.6147156E0,3.4300175E1,3.7269592E0,2.054947E0,0E0,2.3774872E0,3.8637934E0,4.736898E1,1.7441577E2,1.718771E0,0E0,0E0,1.0294952E0,0E0,0E0,0E0,7.2983494E0,0E0,0E0,8.176455E0,5.690955E0,0E0,5.973511E-1,7.922573E0,8.543246E0,5.279541E-2,7.4711447E0,6.8592224E0,1.9269262E1,8.3303833E-1,3.0011292E0,1.0234497E1,0E0,0E0,0E0,0E0,0E0,0E0,0E0,0E0,0E0,0E0,0E0,0E0,0E0,0E0,0E0,0E0,0E0,0E0,0E0,0E0,0E0,0E0,0E0,0E0,0E0,0E0,0E0,0E0,0E0,0E0,0E0,0E0,0E0,0E0,0E0,0E0,0E0,0E0,0E0],"parents":[2147483647,0,0,1,1,2,2,3,3,4,4,5,5,6,6,7,7,8,8,9,9,10,10,11,11,12,12,13,13,14,14,15,15,16,16,17,17,18,18,19,19,20,20,21,21,23,23,24,24,25,25,26,26,27,27,28,28,29,29,31,31,32,32,33,33,34,34,35,35,38,38,42,42,45,45,46,46,48,48,49,49,50,50,51,51,52,52,53,53,54,54,55,55,56,56,57,57],"right_children":[2,4,6,8,10,12,14,16,18,20,22,24,26,28,30,32,34,36,38,40,42,44,-1,46,48,50,52,54,56,58,-1,60,62,64,66,68,-1,-1,70,-1,-1,-1,72,-1,-1,74,76,-1,78,80,82,84,86,88,90,92,94,96,-1,-1,-1,-1,-1,-1,-1,-1,-1,-1,-1,-1,-1,-1,-1,-1,-1,-1,-1,-1,-1,-1,-1,-1,-1,-1,-1,-1,-1,-1,-1,-1,-1,-1,-1,-1,-1,-1,-1],"split_conditions":[1.6E1,5.9E1,1.82E1,1.89E2,6.19E1,1.97E1,2.2E1,1E1,8.9E0,3.6E0,6.3E1,1E2,5.163E2,8.8E1,2.52E1,9E0,8.39E1,2.29E2,1.488E2,6E1,1.003E2,1.68E2,-8.585337E-2,3.886E2,1.706E2,1.06E2,1.5E1,4E1,2.22E1,1E2,-8.446021E-2,7E0,4.75E2,9.3E1,1.2E1,2.367E2,-8.597626E-2,2.8698528E-2,2.07E1,-8.449481E-2,-4.0200498E-2,-8.442423E-2,5.8E1,-8.375717E-2,8.642755E-3,3.1E0,2E1,5.602599E-3,2.127E2,1.1E1,2.367E2,5.629E2,2.3E1,1.9E1,7.5E1,1.12E2,3.024E2,2.787E2,-8.5829735E-2,-8.624319E-2,-5.3496256E-2,3.530746E-2,-5.510377E-2,-7.413796E-2,8.914916E-2,6.1633233E-2,1.3770986E-1,1.6439939E-1,6.0063727E-2,-8.67838E-2,-2.4885636E-2,2.4633627E-2,1.6418047E-1,1.4348742E-2,1.19860396E-1,8.255369E-5,-6.584184E-2,-5.8201734E-2,-8.528043E-2,-3.373368E-2,1.3997193E-1,1.6078146E-1,-4.761541E-2,-4.7484063E-2,-8.444662E-2,1.0642988E-1,-6.0242414E-2,-3.7545167E-2,-8.303075E-2,6.695811E-2,-5.1457696E-2,-6.972451E-2,-8.6269826E-2,8.254761E-2,-5.993491E-2,7.520973E-2,-7.330386E-2],"split_indices":[12,10,12,13,10,10,12,13,12,12,10,13,11,13,12,13,11,13,11,13,11,11,0,11,11,13,13,13,10,13,0,13,11,13,10,11,0,0,10,0,0,0,13,0,0,10,13,0,11,13,11,11,13,13,13,13,11,11,0,0,0,0,0,0,0,0,0,0,0,0,0,0,0,0,0,0,0,0,0,0,0,0,0,0,0,0,0,0,0,0,0,0,0,0,0,0,0],"split_type":[0,0,0,0,0,0,0,0,0,0,0,0,0,0,0,0,0,0,0,0,0,0,0,0,0,0,0,0,0,0,0,0,0,0,0,0,0,0,0,0,0,0,0,0,0,0,0,0,0,0,0,0,0,0,0,0,0,0,0,0,0,0,0,0,0,0,0,0,0,0,0,0,0,0,0,0,0,0,0,0,0,0,0,0,0,0,0,0,0,0,0,0,0,0,0,0,0],"sum_hessian":[8.55422E3,5.074324E3,3.4798955E3,3.9985315E3,1.0757926E3,5.635271E2,2.9163684E3,3.6117034E3,3.8682816E2,7.816216E1,9.9763043E2,4.2924533E2,1.3428178E2,8.4658856E2,2.0697798E3,2.5210751E2,3.359596E3,5.4045353E1,3.327828E2,3.7733166E1,4.0428993E1,2.3173359E1,9.744571E2,1.8290112E2,2.4634421E2,8.766168E1,4.66201E1,3.7411505E2,4.724735E2,5.6608887E2,1.5036909E3,2.1140892E2,4.069859E1,2.1362737E2,3.1459685E3,2.4436516E1,2.9608837E1,4.369831E0,3.2841296E2,3.1659369E1,6.073797E0,6.3928785E0,3.4036114E1,1.915548E1,4.017879E0,5.6123093E1,1.2677803E2,4.0767164E0,2.4226749E2,7.0618E1,1.7043684E1,2.7296047E1,1.932405E1,2.5832773E2,1.1578732E2,4.6206293E2,1.0410575E1,2.7034067E2,2.9574817E2,1.45417E2,6.599191E1,2.8237398E1,1.2461191E1,1.7230864E2,4.1318726E1,7.5243317E2,2.3935354E3,1.9724936E1,4.7115808E0,3.2245807E2,5.954909E0,2.4315321E1,9.720795E0,2.6139914E1,2.9983177E1,3.3533207E1,9.324483E1,2.3520912E1,2.1874657E2,5.1278043E0,6.54902E1,4.709546E0,1.2334138E1,4.0386834E0,2.3257364E1,9.722333E0,9.601718E0,1.1611154E2,1.4221619E2,7.710726E1,3.8680058E1,9.274786E1,3.6931506E2,4.312482E0,6.098093E0,8.6494255E0,2.6169122E2],"tree_param":{"num_deleted":"0","num_feature":"14","num_nodes":"97","size_leaf_vector":"1"}},{"base_weights":[1.676714E-3,3.3879584E-1,-5.800913E-1,5.1222146E-1,-5.047814E-1,-1.9880728E-1,-5.9985906E-1,-8.5616924E-2,7.081261E-1,-1.3553312E-1,-5.998009E-1,-5.701734E-1,1.870313E-1,-5.0977874E-1,-8.531642E-2,-2.1892154E-1,8.2850474E-1,1.8957722E-1,-5.492636E-1,-4.4063053E-1,-8.675594E-2,-8.741944E-2,2.1419413E-1,-6.245489E-1,-1.3101709E-2,-4.2514905E-1,4.9440026E-1,9.047746E-1,-4.6868896E-1,-1.4659147E-1,7.667954E-1,-1.8694076E-1,-8.26135E-2,-1.180677E-1,-8.69583E-2,-1.6709302E-2,8.805716E-2,-8.790148E-2,-3.5460407E-1,1.8940942E-1,-2.979853E-1,-7.2498E-2,2.1524472E-2,-8.41089E-2,9.444652E-2,-1.7994985E-2,1.3083166E-1,8.6734936E-2,-7.587482E-2,-8.766227E-2,7.346283E-3,-7.793901E-2,1.3680156E-1,3.9830156E-2,-8.013521E-2,-8.391094E-2,3.619217E-2,1.03589885E-1,-8.9165725E-2,-8.091466E-2,-1.9111445E-2],"categories":[],"categories_nodes":[],"categories_segments":[],"categories_sizes":[],"default_left":[0,0,0,0,0,0,0,0,0,0,0,0,0,0,0,0,0,0,0,0,0,0,0,0,0,0,0,0,0,0,0,0,0,0,0,0,0,0,0,0,0,0,0,0,0,0,0,0,0,0,0,0,0,0,0,0,0,0,0,0,0],"id":14,"left_children":[1,3,5,7,9,11,13,-1,15,17,19,21,-1,23,-1,25,27,29,31,33,-1,-1,35,37,39,41,43,45,47,49,51,53,-1,55,-1,-1,-1,-1,57,-1,59,-1,-1,-1,-1,-1,-1,-1,-1,-1,-1,-1,-1,-1,-1,-1,-1,-1,-1,-1,-1],"loss_changes":[1.6810626E3,7.940694E2,2.3605835E1,1.000379E3,3.2404373E1,9.054389E1,5.1188965E0,0E0,4.285276E2,2.5657175E1,3.36026E0,6.5047035E0,0E0,3.087587E1,0E0,6.507009E1,3.3641602E2,2.0821888E1,1.4520321E0,7.3067303E0,0E0,0E0,1.4877262E0,1.4904022E0,4.068438E1,2.0278614E1,2.1242384E1,1.5121558E2,1.7294731E1,6.6995444E0,1.2249239E1,2.2070339E0,0E0,8.57362E0,0E0,0E0,0E0,0E0,7.6854963E0,0E0,3.866662E0,0E0,0E0,0E0,0E0,0E0,0E0,0E0,0E0,0E0,0E0,0E0,0E0,0E0,0E0,0E0,0E0,0E0,0E0,0E0,0E0],"parents":[2147483647,0,0,1,1,2,2,3,3,4,4,5,5,6,6,8,8,9,9,10,10,11,11,13,13,15,15,16,16,17,17,18,18,19,19,22,22,23,23,24,24,25,25,26,26,27,27,28,28,29,29,30,30,31,31,33,33,38,38,40,40],"right_children":[2,4,6,8,10,12,14,-1,16,18,20,22,-1,24,-1,26,28,30,32,34,-1,-1,36,38,40,42,44,46,48,50,52,54,-1,56,-1,-1,-1,-1,58,-1,60,-1,-1,-1,-1,-1,-1,-1,-1,-1,-1,-1,-1,-1,-1,-1,-1,-1,-1,-1,-1],"split_conditions":[2.22E1,2.99E1,2.5E1,2.8E1,3.24E1,4.75E1,2.85E1,-8.5616924E-2,1.11E1,4.78E1,3.89E1,4.5E1,1.870313E-1,4.77E1,-8.531642E-2,4.8E1,1E1,4E0,6E0,3.48E1,-8.675594E-2,-8.741944E-2,1.437E2,4.56E1,1.245E2,5E0,7.4E0,3E0,3.33E1,3E0,1.2E1,5.41E1,-8.26135E-2,1.2E1,-8.69583E-2,-1.6709302E-2,8.805716E-2,-8.790148E-2,1.22E2,1.8940942E-1,1.03E1,-7.2498E-2,2.1524472E-2,-8.41089E-2,9.444652E-2,-1.7994985E-2,1.3083166E-1,8.6734936E-2,-7.587482E-2,-8.766227E-2,7.346283E-3,-7.793901E-2,1.3680156E-1,3.9830156E-2,-8.013521E-2,-8.391094E-2,3.619217E-2,1.03589885E-1,-8.9165725E-2,-8.091466E-2,-1.9111445E-2],"split_indices":[10,12,10,6,12,6,10,0,12,6,6,6,0,6,0,6,9,10,9,12,0,0,8,6,7,9,12,10,6,10,6,6,0,6,0,0,0,0,7,0,12,0,0,0,0,0,0,0,0,0,0,0,0,0,0,0,0,0,0,0,0],"split_type":[0,0,0,0,0,0,0,0,0,0,0,0,0,0,0,0,0,0,0,0,0,0,0,0,0,0,0,0,0,0,0,0,0,0,0,0,0,0,0,0,0,0,0,0,0,0,0,0,0,0,0,0,0,0,0,0,0,0,0,0,0],"sum_hessian":[8.570349E3,5.4262646E3,3.144084E3,4.501158E3,9.2510645E2,1.5536223E2,2.988722E3,6.628175E2,3.8383408E3,1.896888E2,7.3541766E2,1.257419E2,2.9620335E1,5.4162494E2,2.447097E3,4.4104462E2,3.3972961E3,1.0633063E2,8.335816E1,1.1921361E2,6.1620404E2,1.16292114E2,9.449781E0,4.3978394E2,1.01841E2,3.423427E2,9.8701904E1,3.208823E3,1.884732E2,6.740674E1,3.892389E1,1.0649304E1,7.270886E1,4.473113E1,7.448248E1,5.4460216E0,4.0037594E0,4.174238E2,2.2360126E1,1.6960546E1,8.4880455E1,2.9160394E2,5.073878E1,1.4376292E1,8.432561E1,1.3490916E2,3.0739138E3,1.286674E1,1.7560646E2,1.9247782E1,4.815896E1,5.518187E0,3.34057E1,4.849112E0,5.800193E0,1.9437698E1,2.529343E1,4.475361E0,1.7884766E1,2.9497934E1,5.5382523E1],"tree_param":{"num_deleted":"0","num_feature":"14","num_nodes":"61","size_leaf_vector":"1"}},{"base_weights":[1.9281187E-4,-4.1410124E-1,3.8335454E-1,-5.4572433E-1,7.401443E-1,1.2092232E-1,1.0653208E0,-5.825996E-1,-2.18639E-1,-8.293389E-2,9.210108E-1,-1.5470052E-1,5.6707644E-1,1.2176899E0,8.9766127E-1,-6.019895E-1,-4.410963E-1,6.601964E-1,-3.85437E-1,3.0453485E-1,1.2191652E0,5.7882977E-1,-3.1664562E-1,3.6147022E-1,1.003938E0,9.627223E-1,1.2605125E0,1.9182271E-1,1.1132774E0,-6.067259E-1,-4.8533535E-1,-6.757115E-2,-5.5263686E-1,-8.30145E-2,2.4783601E-1,-7.6270804E-2,-5.376253E-1,1.9780965E-1,-1.8185009E-1,1.0352743E0,1.7357494E-1,8.8194436E-1,-5.512132E-1,-4.5989564E-1,-3.531195E-3,7.5734437E-1,-3.6780633E-2,-1.8482569E-1,1.0985976E0,1.6380598E-1,2.5899625E-1,1.5051012E0,1.6476123E-1,-2.104885E-1,5.19269E-1,1.6087744E-1,9.775676E-1,-8.462745E-2,-7.9801075E-2,1.5658082E-2,-7.655882E-2,7.278469E-2,-8.6171515E-2,-8.227441E-2,-3.2366868E-2,-3.6672257E-2,9.240319E-2,-8.293708E-2,-6.141274E-2,-4.716529E-2,1.4544095E-1,1.7001973E-1,8.627814E-2,1.0830875E-1,1.7843151E-1,-8.540739E-2,-3.298056E-2,-7.960019E-2,-2.895257E-2,1.4256473E-1,-1.9838825E-2,1.2096799E-1,1.2259497E-2,1.1243382E-1,-3.4131676E-2,1.4288175E-1,-7.038618E-2,1.655991E-1,1.0674492E-1,-2.6927805E-2,1.3785358E-1,2.3443829E-1,1.699005E-1,-5.3063575E-2,1.5492706E-1,2.5971862E-2,1.5010463E-1,5.2201908E-2,1.625402E-1],"categories":[0,1,2,1,2,0,3,2,2,1,2,0,1,2,0,3,0,2,1,0,3,1,2,3,1],"categories_nodes":[6,8,11,18,19,22,25,28,30,31,38,39,41,46,47,48,51],"categories_segments":[0,3,5,7,8,9,10,11,12,14,16,17,18,19,20,21,24],"categories_sizes":[3,2,2,1,1,1,1,1,2,2,1,1,1,1,1,3,1],"default_left":[0,0,0,0,0,0,1,0,1,0,0,1,0,0,0,0,0,0,1,1,0,0,1,0,0,1,0,0,1,0,1,1,0,0,0,0,0,0,1,1,0,1,0,0,0,0,1,1,1,0,0,1,0,0,0,0,0,0,0,0,0,0,0,0,0,0,0,0,0,0,0,0,0,0,0,0,0,0,0,0,0,0,0,0,0,0,0,0,0,0,0,0,0,0,0,0,0,0,0],"id":15,"left_children":[1,3,5,7,9,11,13,15,17,-1,19,21,23,25,27,29,31,33,35,37,39,41,43,45,47,49,51,53,55,57,59,61,63,-1,-1,65,67,-1,69,71,-1,73,75,77,79,81,83,85,87,-1,89,91,-1,93,95,-1,97,-1,-1,-1,-1,-1,-1,-1,-1,-1,-1,-1,-1,-1,-1,-1,-1,-1,-1,-1,-1,-1,-1,-1,-1,-1,-1,-1,-1,-1,-1,-1,-1,-1,-1,-1,-1,-1,-1,-1,-1,-1,-1],"loss_changes":[1.3456089E3,6.1897925E2,7.880459E2,4.3999878E1,1.015887E2,3.9120282E2,3.0588623E1,8.830444E0,5.4570644E1,0E0,6.734711E1,2.3369249E2,1.0886612E2,6.241333E0,8.8829285E1,1.3942871E0,1.6545708E1,8.616739E1,1.4659416E1,6.663574E1,1.0994873E0,1.2214246E2,7.225169E1,1.3041531E2,4.385135E1,1.4852356E1,7.442932E0,1.8187769E1,2.6553345E0,3.5809326E-1,4.9525833E0,3.0891989E1,4.264717E0,0E0,0E0,1.4828806E1,1.0553322E0,0E0,1.7053242E1,3.4923744E0,0E0,1.04461975E1,1.5137424E0,3.253134E1,7.3999954E1,3.3533493E1,7.444245E1,1.1868004E1,1.1540131E1,0E0,8.148912E0,4.68602E0,0E0,1.4699132E1,1.4191116E1,0E0,1.5848961E1,0E0,0E0,0E0,0E0,0E0,0E0,0E0,0E0,0E0,0E0,0E0,0E0,0E0,0E0,0E0,0E0,0E0,0E0,0E0,0E0,0E0,0E0,0E0,0E0,0E0,0E0,0E0,0E0,0E0,0E0,0E0,0E0,0E0,0E0,0E0,0E0,0E0,0E0,0E0,0E0,0E0,0E0],"parents":[2147483647,0,0,1,1,2,2,3,3,4,4,5,5,6,6,7,7,8,8,10,10,11,11,12,12,13,13,14,14,15,15,16,16,17,17,18,18,19,19,20,20,21,21,22,22,23,23,24,24,25,25,26,26,27,27,28,28,29,29,30,30,31,31,32,32,35,35,36,36,38,38,39,39,41,41,42,42,43,43,44,44,45,45,46,46,47,47,48,48,50,50,51,51,53,53,54,54,56,56],"right_children":[2,4,6,8,10,12,14,16,18,-1,20,22,24,26,28,30,32,34,36,38,40,42,44,46,48,50,52,54,56,58,60,62,64,-1,-1,66,68,-1,70,72,-1,74,76,78,80,82,84,86,88,-1,90,92,-1,94,96,-1,98,-1,-1,-1,-1,-1,-1,-1,-1,-1,-1,-1,-1,-1,-1,-1,-1,-1,-1,-1,-1,-1,-1,-1,-1,-1,-1,-1,-1,-1,-1,-1,-1,-1,-1,-1,-1,-1,-1,-1,-1,-1,-1],"split_conditions":[3.484E2,2.76E2,1.6E2,2E2,6.05E1,6.329E2,1E-45,3.088E2,1E-45,-8.293389E-2,3.17E2,1E-45,3.9E1,1.74E2,2.37E2,1.81E2,4E1,1.197E2,1E-45,1E-45,3.5E2,5.3E1,1E-45,1.2E1,1.413E2,1E-45,4.717E2,1.605E2,1E-45,2.389E2,1E-45,1E-45,1.76E2,-8.30145E-2,2.4783601E-1,2.47E2,2.583E2,1.9780965E-1,1E-45,1E-45,1.7357494E-1,1E-45,1.5E2,5.301E2,1.546E2,1.585E2,1E-45,1E-45,1E-45,1.6380598E-1,5.534E2,1E-45,1.6476123E-1,4.986E2,4.118E2,1.6087744E-1,4.23E2,-8.462745E-2,-7.9801075E-2,1.5658082E-2,-7.655882E-2,7.278469E-2,-8.6171515E-2,-8.227441E-2,-3.2366868E-2,-3.6672257E-2,9.240319E-2,-8.293708E-2,-6.141274E-2,-4.716529E-2,1.4544095E-1,1.7001973E-1,8.627814E-2,1.0830875E-1,1.7843151E-1,-8.540739E-2,-3.298056E-2,-7.960019E-2,-2.895257E-2,1.4256473E-1,-1.9838825E-2,1.2096799E-1,1.2259497E-2,1.1243382E-1,-3.4131676E-2,1.4288175E-1,-7.038618E-2,1.655991E-1,1.0674492E-1,-2.6927805E-2,1.3785358E-1,2.3443829E-1,1.699005E-1,-5.3063575E-2,1.5492706E-1,2.5971862E-2,1.5010463E-1,5.2201908E-2,1.625402E-1],"split_indices":[11,13,13,13,11,11,2,11,2,0,13,2,13,13,13,13,13,8,2,2,13,13,1,13,8,5,11,8,1,11,2,2,13,0,0,13,11,0,5,5,0,1,13,11,8,8,2,2,2,0,11,1,0,11,11,0,11,0,0,0,0,0,0,0,0,0,0,0,0,0,0,0,0,0,0,0,0,0,0,0,0,0,0,0,0,0,0,0,0,0,0,0,0,0,0,0,0,0,0],"split_type":[0,0,0,0,0,0,1,0,1,0,0,1,0,0,0,0,0,0,1,1,0,0,1,0,0,1,0,0,1,0,1,1,0,0,0,0,0,0,1,1,0,1,0,0,0,0,1,1,1,0,0,1,0,0,0,0,0,0,0,0,0,0,0,0,0,0,0,0,0,0,0,0,0,0,0,0,0,0,0,0,0,0,0,0,0,0,0,0,0,0,0,0,0,0,0,0,0,0,0],"sum_hessian":[8.475655E3,4.0723145E3,4.4033403E3,3.6557524E3,4.1656198E2,3.1802263E3,1.2231143E3,3.2848787E3,3.7087378E2,4.928289E1,3.6727908E2,1.9659655E3,1.2142607E3,6.388885E2,5.842257E2,2.8872207E3,3.9765802E2,5.8869884E1,3.1200388E2,1.2012434E2,2.4715475E2,3.5524698E2,1.6107185E3,8.263957E2,3.8786505E2,9.382129E1,5.450672E2,1.3698662E2,4.4723907E2,2.772073E3,1.1514771E2,9.1720764E1,3.0593726E2,2.8028843E1,3.084104E1,1.0327303E2,2.0873087E2,3.5806095E1,8.431824E1,4.8280483E1,1.9887427E2,2.8023233E2,7.501467E1,1.1048647E3,5.0585376E2,4.142406E2,4.121551E2,2.8538864E1,3.5932617E2,7.061391E1,2.3207382E1,1.1016477E2,4.3490247E2,6.1499138E1,7.548747E1,3.148133E2,1.324258E2,2.1344863E3,6.3758655E2,1.2065172E1,1.0308254E2,4.4334267E1,4.7386497E1,2.6749E2,3.844726E1,8.265144E1,2.0621586E1,1.20260216E2,8.847064E1,7.500371E1,9.31453E0,3.1640903E1,1.6639582E1,2.291509E2,5.1081432E1,6.086041E1,1.4154262E1,7.491118E2,3.557529E2,5.983807E1,4.460157E2,3.5042807E2,6.3812534E1,8.1397934E1,3.3075714E2,5.741197E0,2.2797668E1,2.7056216E2,8.8764015E1,1.460579E1,8.601592E0,6.1984947E1,4.8179825E1,5.4742603E1,6.7565346E0,4.8301517E1,2.7185957E1,3.398129E1,9.84445E1],"tree_param":{"num_deleted":"0","num_feature":"14","num_nodes":"99","size_leaf_vector":"1"}},{"base_weights":[-3.3668783E-3,8.4342355E-1,-3.4718987E-1,9.154852E-1,5.247931E-1,-5.2044902E-2,-5.240964E-1,9.262861E-1,1.6990525E-1,8.111304E-1,-1.9320646E-1,2.4272163E-1,-3.212411E-1,-3.5386896E-1,-5.6862813E-1,9.706792E-1,8.39939E-1,1.4365084E-1,-2.2740743E-1,8.549417E-1,3.9155945E-1,1.8270056E-1,-4.6041113E-1,4.2691834E-2,7.419447E-1,3.2577568E-1,-4.8597395E-1,-4.4903648E-1,-8.658839E-3,-5.091842E-1,-5.8780414E-1,1.3556504E-1,9.2508674E-1,9.241326E-1,6.4875823E-1,1.636005E-1,-7.3884085E-2,1.4497048E-1,8.000541E-1,6.2264687E-1,-8.122298E-2,3.8189095E-1,-3.5940847E-1,-3.5231385E-1,-8.647784E-2,2.9689437E-1,-3.8699803E-1,8.7638754E-1,3.019889E-1,6.814947E-1,-1.8344313E-1,-2.51497E-1,-5.7948446E-1,-4.9110234E-1,-8.9165745E-3,2.914062E-1,-8.222319E-2,-3.7097645E-1,-8.345072E-2,-5.6479037E-1,-8.2701966E-2,1.304034E-1,8.274781E-2,1.3191743E-1,1.1599246E-1,1.09081924E-1,6.0518887E-2,-3.191921E-2,7.519667E-2,1.1417034E-1,-1.4866178E-2,1.134103E-1,3.9857876E-2,-7.915304E-2,4.0125694E-2,9.978547E-2,2.0895833E-2,-0E0,-8.091159E-2,-2.6317777E-2,-6.7719154E-2,7.741838E-2,-2.6234651E-2,-6.1117876E-2,1.6857256E-1,1.446041E-1,8.1768684E-2,-8.8658305E-3,1.5201443E-1,1.0662069E-1,7.6627345E-3,-6.780049E-2,1.2013638E-1,-5.2076336E-2,1.718073E-1,-6.1657008E-2,-8.3778374E-2,-2.1287093E-2,-7.580607E-2,6.385007E-2,-8.400949E-2,1.030484E-1,-2.745187E-2,-6.500734E-2,9.1207415E-2,-5.8643207E-2,-8.232347E-2],"categories":[0,0,3,3,0,3,1,3,0,0,2,3,1,0,2,0,0],"categories_nodes":[5,19,21,28,29,30,33,39,40,47,54,55],"categories_segments":[0,1,3,4,5,6,8,9,12,13,15,16],"categories_sizes":[1,2,1,1,1,2,1,3,1,2,1,1],"default_left":[0,0,0,0,0,1,0,0,0,0,0,0,0,0,0,0,0,0,0,1,0,1,0,0,0,0,0,0,1,1,1,0,0,1,0,0,0,0,0,1,1,0,0,0,0,0,0,1,0,0,0,0,0,0,1,1,0,0,0,0,0,0,0,0,0,0,0,0,0,0,0,0,0,0,0,0,0,0,0,0,0,0,0,0,0,0,0,0,0,0,0,0,0,0,0,0,0,0,0,0,0,0,0,0,0,0,0],"id":16,"left_children":[1,3,5,7,9,11,13,15,17,19,21,23,25,27,29,31,33,-1,35,37,39,41,43,45,47,49,51,53,55,57,59,-1,61,63,65,67,-1,-1,69,71,73,75,77,79,-1,81,83,85,87,89,91,93,95,97,99,101,-1,103,-1,105,-1,-1,-1,-1,-1,-1,-1,-1,-1,-1,-1,-1,-1,-1,-1,-1,-1,-1,-1,-1,-1,-1,-1,-1,-1,-1,-1,-1,-1,-1,-1,-1,-1,-1,-1,-1,-1,-1,-1,-1,-1,-1,-1,-1,-1,-1,-1],"loss_changes":[2.3707397E3,5.3676636E1,3.023498E2,1.530896E1,8.955589E1,1.7231981E2,2.730365E1,6.732666E0,9.905573E0,5.491043E0,1.255502E1,1.03462036E2,1.2107139E2,2.4698997E1,3.0662842E0,2.2607422E-1,1.0011169E1,0E0,2.445446E0,2.5302734E0,3.3804998E0,5.692623E0,1.164794E0,8.095958E1,1.734491E1,4.1860497E1,1.9731567E1,1.089608E1,2.8933569E1,9.2756195E0,4.1308594E-1,0E0,1.7838745E0,7.36145E-1,5.7513123E0,1.4513365E0,0E0,0E0,5.9739685E0,1.2081623E0,2.020676E0,2.9330568E0,1.1646678E0,9.5087767E-1,0E0,6.032217E1,2.5523716E1,1.0735855E1,2.0730328E1,7.847851E0,3.1288406E1,4.9453037E1,2.2809143E0,1.0699249E1,1.495778E1,2.442516E1,0E0,3.0680492E1,0E0,3.4426575E0,0E0,0E0,0E0,0E0,0E0,0E0,0E0,0E0,0E0,0E0,0E0,0E0,0E0,0E0,0E0,0E0,0E0,0E0,0E0,0E0,0E0,0E0,0E0,0E0,0E0,0E0,0E0,0E0,0E0,0E0,0E0,0E0,0E0,0E0,0E0,0E0,0E0,0E0,0E0,0E0,0E0,0E0,0E0,0E0,0E0,0E0,0E0],"parents":[2147483647,0,0,1,1,2,2,3,3,4,4,5,5,6,6,7,7,8,8,9,9,10,10,11,11,12,12,13,13,14,14,15,15,16,16,18,18,19,19,20,20,21,21,22,22,23,23,24,24,25,25,26,26,27,27,28,28,29,29,30,30,32,32,33,33,34,34,35,35,38,38,39,39,40,40,41,41,42,42,43,43,45,45,46,46,47,47,48,48,49,49,50,50,51,51,52,52,53,53,54,54,55,55,57,57,59,59],"right_children":[2,4,6,8,10,12,14,16,18,20,22,24,26,28,30,32,34,-1,36,38,40,42,44,46,48,50,52,54,56,58,60,-1,62,64,66,68,-1,-1,70,72,74,76,78,80,-1,82,84,86,88,90,92,94,96,98,100,102,-1,104,-1,106,-1,-1,-1,-1,-1,-1,-1,-1,-1,-1,-1,-1,-1,-1,-1,-1,-1,-1,-1,-1,-1,-1,-1,-1,-1,-1,-1,-1,-1,-1,-1,-1,-1,-1,-1,-1,-1,-1,-1,-1,-1,-1,-1,-1,-1,-1,-1],"split_conditions":[5E0,3.5E0,5.6E1,1.59E2,6.9E1,1E-45,8.7E1,2.1E0,6.1E1,5.8E1,9.5E1,1.389E2,1E1,2.09E1,1.19E2,1.6E0,4.9E1,1.4365084E-1,9.5E1,1E-45,1.012E2,1E-45,1.35E2,1.99E1,4.2E1,2.01E1,1.8E1,6E0,1E-45,1E-45,1E-45,1.3556504E-1,1.377E2,1E-45,1.224E2,2.33E1,-7.3884085E-2,1.4497048E-1,1.245E2,1E-45,1E-45,1.165E2,1.035E2,1.208E2,-8.647784E-2,4E1,7E0,1E-45,2.21E1,9E0,1.335E2,8E0,2.1E1,6.9E0,1E-45,1E-45,-8.222319E-2,2.23E1,-8.345072E-2,1.6E2,-8.2701966E-2,1.304034E-1,8.274781E-2,1.3191743E-1,1.1599246E-1,1.09081924E-1,6.0518887E-2,-3.191921E-2,7.519667E-2,1.1417034E-1,-1.4866178E-2,1.134103E-1,3.9857876E-2,-7.915304E-2,4.0125694E-2,9.978547E-2,2.0895833E-2,-0E0,-8.091159E-2,-2.6317777E-2,-6.7719154E-2,7.741838E-2,-2.6234651E-2,-6.1117876E-2,1.6857256E-1,1.446041E-1,8.1768684E-2,-8.8658305E-3,1.5201443E-1,1.0662069E-1,7.6627345E-3,-6.780049E-2,1.2013638E-1,-5.2076336E-2,1.718073E-1,-6.1657008E-2,-8.3778374E-2,-2.1287093E-2,-7.580607E-2,6.385007E-2,-8.400949E-2,1.030484E-1,-2.745187E-2,-6.500734E-2,9.1207415E-2,-5.8643207E-2,-8.232347E-2],"split_indices":[12,12,13,8,13,2,13,12,13,13,13,7,13,12,13,12,13,0,13,2,7,2,13,12,13,12,13,9,2,2,2,0,8,2,8,4,0,0,7,2,5,8,7,7,0,13,9,2,12,13,7,9,13,12,2,5,0,12,0,13,0,0,0,0,0,0,0,0,0,0,0,0,0,0,0,0,0,0,0,0,0,0,0,0,0,0,0,0,0,0,0,0,0,0,0,0,0,0,0,0,0,0,0,0,0,0,0],"split_type":[0,0,0,0,0,1,0,0,0,0,0,0,0,0,0,0,0,0,0,1,0,1,0,0,0,0,0,0,1,1,1,0,0,1,0,0,0,0,0,1,1,0,0,0,0,0,0,1,0,0,0,0,0,0,1,1,0,0,0,0,0,0,0,0,0,0,0,0,0,0,0,0,0,0,0,0,0,0,0,0,0,0,0,0,0,0,0,0,0,0,0,0,0,0,0,0,0,0,0,0,0,0,0,0,0,0,0],"sum_hessian":[8.1417734E3,2.3509065E3,5.7908667E3,1.9163685E3,4.345381E2,2.1705356E3,3.6203313E3,1.888823E3,2.7545525E1,3.1064005E2,1.2389803E2,1.036017E3,1.1345187E3,7.5188074E2,2.8684504E3,1.2435295E3,6.452934E2,8.369641E0,1.9175882E1,2.806799E2,2.9960161E1,5.1487743E1,7.2410286E1,7.4012476E2,2.958922E2,2.3007907E2,9.044396E2,5.891802E2,1.627006E2,7.0375104E2,2.1646995E3,9.430814E2,3.0044812E2,4.464254E2,1.9886801E2,8.523956E0,1.0651926E1,5.8641724E1,2.2203816E2,2.0065123E1,9.895039E0,3.7821964E1,1.3665779E1,4.5185024E1,2.7225266E1,4.6518253E2,2.7494226E2,2.2615906E2,6.973316E1,1.3539369E2,9.468537E1,2.585448E2,6.458948E2,5.3764185E2,5.15383E1,1.0789539E2,5.4805202E1,2.9134122E2,4.1240985E2,7.8618335E2,1.3785162E3,2.80226E2,2.0222107E1,3.1077744E2,1.3564798E2,1.1694995E2,8.191807E1,4.2452836E0,4.2786727E0,2.1521204E2,6.826125E0,1.1945639E1,8.119484E0,4.176106E0,5.718933E0,1.4657085E1,2.3164879E1,5.518796E0,8.146983E0,2.1689903E1,2.3495121E1,3.0118732E2,1.639952E2,2.6596326E2,8.978986E0,1.389966E2,8.716247E1,4.817437E1,2.155879E1,1.1772683E2,1.766687E1,7.350208E1,2.1183292E1,2.3878851E2,1.9756285E1,1.18456696E2,5.2743805E2,8.115897E1,4.5648288E2,2.8887007E1,2.2651293E1,5.5763466E1,5.213193E1,2.6566113E2,2.5680065E1,1.53129E2,6.330543E2],"tree_param":{"num_deleted":"0","num_feature":"14","num_nodes":"107","size_leaf_vector":"1"}},{"base_weights":[6.5824937E-4,2.441061E-1,-4.6413177E-1,3.9907393E-1,-3.7244305E-1,1.2555072E-2,-5.7071275E-1,-6.025538E-1,5.609993E-1,-1.6383639E-1,-8.508237E-2,-8.599481E-2,4.7229886E-1,-3.3345708E-1,-6.09411E-1,-8.566626E-2,-1.5321171E-1,-2.3996465E-1,6.700268E-1,1.2598416E-1,-4.9938408E-1,1.2948071E0,-1.9592129E-1,2.4213864E-1,-5.050313E-1,-4.6545178E-1,-8.406813E-2,-8.165769E-2,1.2465013E-1,-5.1635206E-1,7.646555E-2,9.099435E-1,3.2846546E-1,-4.583683E-1,2.9447937E-1,-1.5055239E-1,-8.671914E-2,1.850243E-1,1.5259977E-1,1.1012044E0,-5.429844E-1,6.052221E-1,-8.579414E-2,4.8130167E-1,-5.513317E-1,-2.0621663E-2,-7.484623E-2,-7.760501E-2,-4.1188046E-2,-7.7490315E-2,6.086336E-2,-7.965382E-2,1.2793222E-1,7.660557E-2,-1.9553568E-2,-8.1329316E-2,-1.5655765E-2,7.6641746E-2,-4.679959E-2,-8.1259154E-2,2.7609218E-2,1.5877786E-1,9.166675E-2,-2.8345974E-3,-8.594822E-2,-2.8700903E-2,1.1074623E-1,1.5725306E-1,-2.1289084E-2,-5.415903E-2,-8.284457E-2],"categories":[],"categories_nodes":[],"categories_segments":[],"categories_sizes":[],"default_left":[0,0,0,0,0,0,0,0,0,0,0,0,0,0,0,0,0,0,0,0,0,0,0,0,0,0,0,0,0,0,0,0,0,0,0,0,0,0,0,0,0,0,0,0,0,0,0,0,0,0,0,0,0,0,0,0,0,0,0,0,0,0,0,0,0,0,0,0,0,0,0],"id":17,"left_children":[1,3,5,7,9,11,13,15,17,19,-1,-1,21,23,25,-1,27,29,31,33,35,37,39,41,43,45,-1,-1,-1,47,49,51,53,55,57,59,-1,-1,-1,61,63,65,-1,67,69,-1,-1,-1,-1,-1,-1,-1,-1,-1,-1,-1,-1,-1,-1,-1,-1,-1,-1,-1,-1,-1,-1,-1,-1,-1,-1],"loss_changes":[9.385058E2,5.2016016E2,1.4487274E2,7.05741E2,5.5924667E1,1.528904E2,2.1247314E1,5.266159E0,3.271571E2,5.762455E1,0E0,0E0,1.668341E2,3.2477665E1,1.4703369E-1,0E0,1.2464339E1,3.9312614E1,2.699369E2,3.1380346E1,1.24135895E1,3.4635925E-1,7.581473E1,2.3969429E1,1.1698463E1,3.9556074E-1,0E0,0E0,0E0,2.3395462E0,4.915619E1,5.5763916E1,1.460198E2,3.1900578E0,4.1231865E1,1.1736046E1,0E0,0E0,0E0,3.2102966E-1,5.6022987E0,8.79805E0,0E0,5.0053654E0,1.7589188E0,0E0,0E0,0E0,0E0,0E0,0E0,0E0,0E0,0E0,0E0,0E0,0E0,0E0,0E0,0E0,0E0,0E0,0E0,0E0,0E0,0E0,0E0,0E0,0E0,0E0,0E0],"parents":[2147483647,0,0,1,1,2,2,3,3,4,4,5,5,6,6,7,7,8,8,9,9,12,12,13,13,14,14,16,16,17,17,18,18,19,19,20,20,21,21,22,22,23,23,24,24,25,25,29,29,30,30,31,31,32,32,33,33,34,34,35,35,39,39,40,40,41,41,43,43,44,44],"right_children":[2,4,6,8,10,12,14,16,18,20,-1,-1,22,24,26,-1,28,30,32,34,36,38,40,42,44,46,-1,-1,-1,48,50,52,54,56,58,60,-1,-1,-1,62,64,66,-1,68,70,-1,-1,-1,-1,-1,-1,-1,-1,-1,-1,-1,-1,-1,-1,-1,-1,-1,-1,-1,-1,-1,-1,-1,-1,-1,-1],"split_conditions":[5E0,4.8E1,3.28E1,1.33E1,5.52E1,1.28E1,2.6E1,1.28E1,1.029E2,3E0,-8.508237E-2,-8.599481E-2,2.8E1,4.918E2,2.7E1,-8.566626E-2,4.9E1,6.8E1,3.51E1,1.136E2,2.6E1,2.23E1,2.1E1,4.77E1,3.48E1,3.1E1,-8.406813E-2,-8.165769E-2,1.2465013E-1,5.5E1,5.81E1,7E0,3.435E2,1.13E2,3.173E2,1.3E1,-8.671914E-2,1.850243E-1,1.5259977E-1,6.329E2,2.8E1,1.2E1,-8.579414E-2,6E0,5.872E2,-2.0621663E-2,-7.484623E-2,-7.760501E-2,-4.1188046E-2,-7.7490315E-2,6.086336E-2,-7.965382E-2,1.2793222E-1,7.660557E-2,-1.9553568E-2,-8.1329316E-2,-1.5655765E-2,7.6641746E-2,-4.679959E-2,-8.1259154E-2,2.7609218E-2,1.5877786E-1,9.166675E-2,-2.8345974E-3,-8.594822E-2,-2.8700903E-2,1.1074623E-1,1.5725306E-1,-2.1289084E-2,-5.415903E-2,-8.284457E-2],"split_indices":[9,6,6,6,6,6,13,6,11,9,0,0,6,11,13,0,13,13,6,11,13,6,13,6,6,0,0,0,0,13,11,13,11,13,11,13,0,0,0,11,13,13,0,9,11,0,0,0,0,0,0,0,0,0,0,0,0,0,0,0,0,0,0,0,0,0,0,0,0,0,0],"split_type":[0,0,0,0,0,0,0,0,0,0,0,0,0,0,0,0,0,0,0,0,0,0,0,0,0,0,0,0,0,0,0,0,0,0,0,0,0,0,0,0,0,0,0,0,0,0,0,0,0,0,0,0,0,0,0,0,0,0,0,0,0,0,0,0,0,0,0,0,0,0,0],"sum_hessian":[8.293194E3,5.442736E3,2.8504578E3,4.349704E3,1.0930321E3,5.208857E2,2.3295723E3,6.050871E2,3.744617E3,5.915121E2,5.0152E2,2.1820412E2,3.0268158E2,3.2755447E2,2.0020177E3,5.79451E2,2.5636091E1,4.4852805E2,3.2960889E3,3.174994E2,2.740127E2,1.3547742E2,1.6720415E2,7.5113716E1,2.5244075E2,1.837047E1,1.9836472E3,1.830373E1,7.332362E0,2.3929703E2,2.0923103E2,1.9355355E3,1.3605532E3,7.080043E1,2.4669894E2,7.498527E1,1.9902742E2,1.0445047E2,3.1026949E1,3.5023605E1,1.3218054E2,5.305708E1,2.2056635E1,1.1054111E1,2.4138664E2,4.0570264E0,1.4313444E1,1.956481E2,4.3648922E1,7.597723E1,1.332538E2,2.4480303E1,1.9110553E3,9.1652136E2,4.4403186E2,5.0797848E1,2.000258E1,1.7464839E2,7.205055E1,3.3180344E1,4.180492E1,3.0413033E1,4.610571E0,1.7950668E1,1.1422987E2,1.0388461E1,4.2668617E1,5.24106E0,5.8130507E0,5.9702682E1,1.8168396E2],"tree_param":{"num_deleted":"0","num_feature":"14","num_nodes":"71","size_leaf_vector":"1"}},{"base_weights":[3.8856894E-3,3.0925134E-1,-5.6354266E-1,-8.364777E-2,4.3867478E-1,-1.8230693E-1,-5.839032E-1,5.8111745E-1,-3.914942E-1,-5.50799E-1,1.634607E-1,-4.871159E-1,-8.337669E-2,6.4711875E-1,-5.808477E-1,7.467226E-1,-5.9801173E-1,-8.5089825E-2,2.031431E-1,-6.076254E-1,4.15277E-3,-3.006208E-1,6.9878834E-1,-3.83662E-1,-8.854339E-2,1.0129244E0,-8.360618E-2,-5.401225E-2,-8.462872E-2,-5.5554975E-2,9.653245E-2,-8.566706E-2,-3.33212E-1,-2.60822E-1,1.6384467E-1,-6.6361845E-2,1.5385512E-1,-3.79858E-2,1.03322186E-1,-8.419165E-2,-9.277835E-3,1.549894E-1,3.003811E-2,1.0032256E-1,-7.090787E-2,-8.6130396E-2,7.818496E-2,-6.865035E-2,2.7729038E-2],"categories":[2],"categories_nodes":[23],"categories_segments":[0],"categories_sizes":[1],"default_left":[0,0,0,0,0,0,0,0,0,0,0,0,0,0,0,0,0,0,0,0,0,0,0,1,0,0,0,0,0,0,0,0,0,0,0,0,0,0,0,0,0,0,0,0,0,0,0,0,0],"id":18,"left_children":[1,3,5,-1,7,9,11,13,15,17,-1,19,-1,21,23,25,27,-1,29,31,33,35,37,39,-1,41,-1,43,-1,-1,-1,-1,45,47,-1,-1,-1,-1,-1,-1,-1,-1,-1,-1,-1,-1,-1,-1,-1],"loss_changes":[1.444796E3,6.433671E2,2.255719E1,0E0,5.61914E2,7.541298E1,5.6068726E0,3.1120654E2,1.6384853E2,6.0452423E0,0E0,3.0199966E1,0E0,1.8805176E2,2.5057068E0,3.8950706E1,5.2977295E0,0E0,3.1807215E0,1.4894409E0,3.1899504E1,5.1381718E1,1.8335999E2,3.8313184E0,0E0,7.858444E0,0E0,6.7509384E0,0E0,0E0,0E0,0E0,5.977126E0,9.17337E0,0E0,0E0,0E0,0E0,0E0,0E0,0E0,0E0,0E0,0E0,0E0,0E0,0E0,0E0,0E0],"parents":[2147483647,0,0,1,1,2,2,4,4,5,5,6,6,7,7,8,8,9,9,11,11,13,13,14,14,15,15,16,16,18,18,19,19,20,20,21,21,22,22,23,23,25,25,27,27,32,32,33,33],"right_children":[2,4,6,-1,8,10,12,14,16,18,-1,20,-1,22,24,26,28,-1,30,32,34,36,38,40,-1,42,-1,44,-1,-1,-1,-1,46,48,-1,-1,-1,-1,-1,-1,-1,-1,-1,-1,-1,-1,-1,-1,-1],"split_conditions":[2.22E1,2.8E1,2.5E1,-8.364777E-2,9E0,4.75E1,2.85E1,3.17E2,3.8E1,4.5E1,1.634607E-1,4.77E1,-8.337669E-2,1.754E2,3.5E2,1.1E1,4.1E1,-8.5089825E-2,3.125E2,4.56E1,2.51E1,2.07E2,3E0,1E-45,-8.854339E-2,8.991E2,-8.360618E-2,1E1,-8.462872E-2,-5.5554975E-2,9.653245E-2,-8.566706E-2,2.51E1,7.7E1,1.6384467E-1,-6.6361845E-2,1.5385512E-1,-3.79858E-2,1.03322186E-1,-8.419165E-2,-9.277835E-3,1.549894E-1,3.003811E-2,1.0032256E-1,-7.090787E-2,-8.6130396E-2,7.818496E-2,-6.865035E-2,2.7729038E-2],"split_indices":[10,6,10,0,9,6,10,13,13,6,0,6,0,11,13,9,13,0,11,6,10,13,10,5,0,11,0,9,0,0,0,0,10,13,0,0,0,0,0,0,0,0,0,0,0,0,0,0,0],"split_type":[0,0,0,0,0,0,0,0,0,0,0,0,0,0,0,0,0,0,0,0,0,0,0,1,0,0,0,0,0,0,0,0,0,0,0,0,0,0,0,0,0,0,0,0,0,0,0,0,0],"sum_hessian":[8.337235E3,5.4204795E3,2.916756E3,6.702614E2,4.7502183E3,1.4824576E2,2.7685103E3,